booster[0]:
0:[f6<0.5] yes=1,no=2,missing=1
	1:[f1<55.5] yes=3,no=4,missing=3
		3:[f4<5460.5] yes=7,no=8,missing=7
			7:[f4<450.5] yes=15,no=16,missing=15
				15:leaf=-0.0189841
				16:[f3<0.72863] yes=23,no=24,missing=23
					23:[f5<1.5] yes=35,no=36,missing=35
						35:[f1<25.5] yes=47,no=48,missing=47
							47:leaf=-0.0182143
							48:[f4<2872.09] yes=59,no=60,missing=59
								59:leaf=-0.0123024
								60:leaf=-0.0162145
						36:[f1<27.5] yes=49,no=50,missing=49
							49:leaf=-0.0158462
							50:leaf=-0.0174651
					24:[f5<11.5] yes=37,no=38,missing=37
						37:leaf=-0.0163035
						38:[f3<1.41462] yes=51,no=52,missing=51
							51:leaf=-0.0147569
							52:leaf=-0.0117241
			8:[f3<0.376961] yes=17,no=18,missing=17
				17:leaf=-0.0186376
				18:[f3<2.52625] yes=25,no=26,missing=25
					25:[f3<0.725063] yes=39,no=40,missing=39
						39:[f3<0.583682] yes=53,no=54,missing=53
							53:leaf=-0.017668
							54:leaf=-0.0156111
						40:[f3<0.944773] yes=55,no=56,missing=55
							55:leaf=-0.0137026
							56:leaf=-0.0101571
					26:[f3<4125.5] yes=41,no=42,missing=41
						41:leaf=-0.0185904
						42:leaf=-0.0167171
		4:[f5<8.5] yes=9,no=10,missing=9
			9:leaf=-0.0192492
			10:leaf=-0.0185659
	2:[f6<1.5] yes=5,no=6,missing=5
		5:[f1<59.5] yes=11,no=12,missing=11
			11:[f3<0.402969] yes=19,no=20,missing=19
				19:[f4<6183.5] yes=27,no=28,missing=27
					27:[f4<2592.5] yes=43,no=44,missing=43
						43:leaf=-0.00913044
						44:[f5<4.5] yes=57,no=58,missing=57
							57:leaf=-0.0047099
							58:leaf=-0.00776256
					28:leaf=-0.010274
				20:[f5<7.5] yes=29,no=30,missing=29
					29:[f3<11.5] yes=45,no=46,missing=45
						45:leaf=0.000430108
						46:leaf=-0.00433862
					30:leaf=-0.00570447
			12:leaf=-0.0109456
		6:[f3<0.118887] yes=13,no=14,missing=13
			13:leaf=-0.00245847
			14:[f6<2.5] yes=21,no=22,missing=21
				21:[f4<4440.91] yes=31,no=32,missing=31
					31:leaf=0.00344186
					32:leaf=-0.00028169
				22:[f3<0.419758] yes=33,no=34,missing=33
					33:leaf=0.00252632
					34:leaf=0.00798419
booster[1]:
0:[f6<0.5] yes=1,no=2,missing=1
	1:[f0<0.634873] yes=3,no=4,missing=3
		3:[f2<0.5] yes=7,no=8,missing=7
			7:[f0<0.227584] yes=15,no=16,missing=15
				15:leaf=-0.0193429
				16:leaf=-0.0183409
			8:[f2<2.5] yes=17,no=18,missing=17
				17:[f0<0.459195] yes=29,no=30,missing=29
					29:[f2<1.5] yes=49,no=50,missing=49
						49:leaf=-0.0174303
						50:leaf=-0.0155778
					30:leaf=-0.0149751
				18:leaf=-0.0110625
		4:[f2<0.5] yes=9,no=10,missing=9
			9:[f0<1.00614] yes=19,no=20,missing=19
				19:[f0<0.833145] yes=31,no=32,missing=31
					31:[f3<0.536906] yes=51,no=52,missing=51
						51:leaf=-0.018116
						52:leaf=-0.0161826
					32:leaf=-0.0160842
				20:[f0<1.09576] yes=33,no=34,missing=33
					33:leaf=-0.010573
					34:leaf=-0.0146969
			10:[f2<2.5] yes=21,no=22,missing=21
				21:[f0<1.00404] yes=35,no=36,missing=35
					35:[f2<1.5] yes=53,no=54,missing=53
						53:[f3<0.133985] yes=55,no=56,missing=55
							55:leaf=-0.00973688
							56:[f3<0.51527] yes=59,no=60,missing=59
								59:[f9<0.5] yes=61,no=62,missing=61
									61:leaf=-0.0157523
									62:leaf=-0.0133066
								60:[f0<0.829774] yes=63,no=64,missing=63
									63:leaf=-0.0135389
									64:leaf=-0.0108179
						54:[f3<0.462327] yes=57,no=58,missing=57
							57:leaf=-0.0112844
							58:leaf=-0.00732147
					36:leaf=-0.00477846
				22:[f0<0.962872] yes=37,no=38,missing=37
					37:leaf=-0.00490334
					38:leaf=0.000171987
	2:[f0<0.733974] yes=5,no=6,missing=5
		5:[f2<1.5] yes=11,no=12,missing=11
			11:[f2<0.5] yes=23,no=24,missing=23
				23:[f3<0.423955] yes=39,no=40,missing=39
					39:leaf=-0.0124268
					40:leaf=-0.00908458
				24:leaf=-0.00822808
			12:leaf=-0.00362926
		6:[f6<1.5] yes=13,no=14,missing=13
			13:[f3<0.359112] yes=25,no=26,missing=25
				25:[f2<0.5] yes=41,no=42,missing=41
					41:leaf=-0.00829198
					42:leaf=-0.00342439
				26:[f2<0.5] yes=43,no=44,missing=43
					43:leaf=-0.00337527
					44:leaf=0.00056645
			14:[f3<0.258306] yes=27,no=28,missing=27
				27:[f3<0.0542514] yes=45,no=46,missing=45
					45:leaf=-0.00311316
					46:leaf=-0.000481366
				28:[f2<0.5] yes=47,no=48,missing=47
					47:leaf=0.00102365
					48:leaf=0.0091441
booster[2]:
0:[f1<55.5] yes=1,no=2,missing=1
	1:[f5<0.5] yes=3,no=4,missing=3
		3:[f4<3144.5] yes=7,no=8,missing=7
			7:leaf=-0.00711981
			8:leaf=-0.00986124
		4:[f4<5456.5] yes=9,no=10,missing=9
			9:[f4<1074] yes=13,no=14,missing=13
				13:leaf=-0.0174151
				14:[f5<2.5] yes=21,no=22,missing=21
					21:[f4<4720] yes=27,no=28,missing=27
						27:[f9<1.5] yes=35,no=36,missing=35
							35:[f1<27.5] yes=43,no=44,missing=43
								43:[f4<2193.6] yes=53,no=54,missing=53
									53:leaf=-0.0127954
									54:leaf=-0.0160187
								44:[f5<1.5] yes=55,no=56,missing=55
									55:leaf=-0.0111685
									56:[f1<39.5] yes=63,no=64,missing=63
										63:leaf=-0.014658
										64:leaf=-0.0117081
							36:leaf=-0.0105428
						28:leaf=-0.0154634
					22:[f7<0.5] yes=29,no=30,missing=29
						29:[f9<0.5] yes=37,no=38,missing=37
							37:leaf=-0.0152963
							38:[f1<32.5] yes=45,no=46,missing=45
								45:[f4<3456.65] yes=57,no=58,missing=57
									57:leaf=-0.0106032
									58:leaf=-0.0140044
								46:[f4<4802] yes=59,no=60,missing=59
									59:[f9<2.5] yes=65,no=66,missing=65
										65:leaf=-0.0149332
										66:leaf=-0.0123669
									60:leaf=-0.0166435
						30:[f5<10.5] yes=39,no=40,missing=39
							39:leaf=-0.0162802
							40:[f7<2.5] yes=47,no=48,missing=47
								47:[f1<40.5] yes=61,no=62,missing=61
									61:leaf=-0.0139377
									62:leaf=-0.0159838
								48:leaf=-0.0123865
			10:[f7<3.5] yes=15,no=16,missing=15
				15:[f7<0.5] yes=23,no=24,missing=23
					23:[f9<0.5] yes=31,no=32,missing=31
						31:leaf=-0.0171269
						32:[f4<7043.5] yes=41,no=42,missing=41
							41:[f9<2.5] yes=49,no=50,missing=49
								49:leaf=-0.014968
								50:leaf=-0.0120037
							42:[f5<4.5] yes=51,no=52,missing=51
								51:leaf=-0.0147328
								52:leaf=-0.0171488
					24:leaf=-0.01742
				16:[f5<15.5] yes=25,no=26,missing=25
					25:[f4<11717.5] yes=33,no=34,missing=33
						33:leaf=-0.0136129
						34:leaf=-0.0166413
					26:leaf=-0.0119671
	2:[f1<63.5] yes=5,no=6,missing=5
		5:[f4<6251.99] yes=11,no=12,missing=11
			11:[f5<1.5] yes=17,no=18,missing=17
				17:leaf=-0.0128422
				18:leaf=-0.0169502
			12:[f7<3.5] yes=19,no=20,missing=19
				19:leaf=-0.0183842
				20:leaf=-0.0156999
		6:leaf=-0.0186163
booster[3]:
0:[f6<0.5] yes=1,no=2,missing=1
	1:[f8<0.5] yes=3,no=4,missing=3
		3:[f1<57.5] yes=7,no=8,missing=7
			7:[f5<1.5] yes=15,no=16,missing=15
				15:[f1<24.5] yes=27,no=28,missing=27
					27:leaf=-0.0176816
					28:leaf=-0.0147565
				16:[f5<13.5] yes=29,no=30,missing=29
					29:[f4<5544.17] yes=39,no=40,missing=39
						39:leaf=-0.0173942
						40:[f1<43.5] yes=49,no=50,missing=49
							49:leaf=-0.017713
							50:leaf=-0.0183998
					30:[f1<43.5] yes=41,no=42,missing=41
						41:[f4<5327] yes=51,no=52,missing=51
							51:leaf=-0.0140856
							52:leaf=-0.0159956
						42:leaf=-0.0169636
			8:leaf=-0.018655
		4:[f8<1.5] yes=9,no=10,missing=9
			9:[f5<7.5] yes=17,no=18,missing=17
				17:[f1<53.5] yes=31,no=32,missing=31
					31:[f1<42.5] yes=43,no=44,missing=43
						43:leaf=-0.00924899
						44:leaf=-0.00446269
					32:leaf=-0.0116195
				18:[f4<4256] yes=33,no=34,missing=33
					33:leaf=-0.00977358
					34:[f5<10.5] yes=45,no=46,missing=45
						45:leaf=-0.0136728
						46:leaf=-0.011099
			10:leaf=-0.00363226
	2:[f6<1.5] yes=5,no=6,missing=5
		5:[f8<0.5] yes=11,no=12,missing=11
			11:[f4<5577.81] yes=19,no=20,missing=19
				19:[f1<49.5] yes=35,no=36,missing=35
					35:[f5<4.5] yes=47,no=48,missing=47
						47:[f4<3049] yes=53,no=54,missing=53
							53:leaf=-0.00691022
							54:leaf=-0.00235487
						48:leaf=-0.00732929
					36:leaf=-0.00925061
				20:[f1<53.5] yes=37,no=38,missing=37
					37:leaf=-0.0101023
					38:leaf=-0.0126681
			12:[f4<4738.5] yes=21,no=22,missing=21
				21:leaf=-6.87895e-05
				22:leaf=-0.00374957
		6:[f8<0.5] yes=13,no=14,missing=13
			13:[f6<2.5] yes=23,no=24,missing=23
				23:leaf=-0.00273664
				24:leaf=0.000184089
			14:[f5<3.5] yes=25,no=26,missing=25
				25:leaf=0.00215117
				26:leaf=0.00647822
booster[4]:
0:[f6<0.5] yes=1,no=2,missing=1
	1:[f2<1.5] yes=3,no=4,missing=3
		3:[f2<0.5] yes=7,no=8,missing=7
			7:[f1<52.5] yes=15,no=16,missing=15
				15:[f5<1.5] yes=31,no=32,missing=31
					31:[f1<26.5] yes=49,no=50,missing=49
						49:leaf=-0.0172631
						50:[f5<0.5] yes=57,no=58,missing=57
							57:leaf=-0.0123088
							58:leaf=-0.0151096
					32:[f7<4.5] yes=51,no=52,missing=51
						51:[f1<35.5] yes=59,no=60,missing=59
							59:leaf=-0.0171788
							60:[f5<16.5] yes=61,no=62,missing=61
								61:leaf=-0.0179297
								62:leaf=-0.016516
						52:leaf=-0.0139802
				16:leaf=-0.0185917
			8:[f7<0.5] yes=17,no=18,missing=17
				17:[f1<39.5] yes=33,no=34,missing=33
					33:leaf=-0.0119703
					34:leaf=-0.014302
				18:[f1<55.5] yes=35,no=36,missing=35
					35:[f7<2.5] yes=53,no=54,missing=53
						53:leaf=-0.0153893
						54:leaf=-0.0128764
					36:leaf=-0.0167224
		4:[f2<2.5] yes=9,no=10,missing=9
			9:[f1<51.5] yes=19,no=20,missing=19
				19:[f1<38.5] yes=37,no=38,missing=37
					37:leaf=-0.00807254
					38:leaf=-0.0108815
				20:leaf=-0.0135128
			10:[f1<49.5] yes=21,no=22,missing=21
				21:[f1<42.5] yes=39,no=40,missing=39
					39:leaf=-0.0028852
					40:leaf=-0.00531621
				22:[f5<11.5] yes=41,no=42,missing=41
					41:leaf=-0.00938718
					42:leaf=-0.00570029
	2:[f6<1.5] yes=5,no=6,missing=5
		5:[f2<1.5] yes=11,no=12,missing=11
			11:[f5<4.5] yes=23,no=24,missing=23
				23:[f1<50.5] yes=43,no=44,missing=43
					43:[f1<38.5] yes=55,no=56,missing=55
						55:leaf=-0.00533679
						56:leaf=-0.00358996
					44:leaf=-0.00906688
				24:[f2<0.5] yes=45,no=46,missing=45
					45:leaf=-0.0116395
					46:leaf=-0.00650332
			12:[f2<2.5] yes=25,no=26,missing=25
				25:leaf=-0.00357997
				26:leaf=0.00021174
		6:[f2<0.5] yes=13,no=14,missing=13
			13:[f6<2.5] yes=27,no=28,missing=27
				27:leaf=-0.00414641
				28:leaf=0.00178797
			14:[f6<3.5] yes=29,no=30,missing=29
				29:[f2<1.5] yes=47,no=48,missing=47
					47:leaf=1.93061e-05
					48:leaf=0.00510307
				30:leaf=0.00562007
booster[5]:
0:[f6<0.5] yes=1,no=2,missing=1
	1:[f4<5462.5] yes=3,no=4,missing=3
		3:[f9<0.5] yes=7,no=8,missing=7
			7:[f5<1.5] yes=15,no=16,missing=15
				15:[f4<2125.49] yes=29,no=30,missing=29
					29:leaf=-0.0173192
					30:[f4<3276.9] yes=45,no=46,missing=45
						45:leaf=-0.0126155
						46:leaf=-0.0152523
				16:[f3<0.0366814] yes=31,no=32,missing=31
					31:leaf=-0.0186062
					32:[f3<0.493089] yes=47,no=48,missing=47
						47:leaf=-0.0173235
						48:[f4<899] yes=61,no=62,missing=61
							61:leaf=-0.0184418
							62:leaf=-0.0162846
			8:[f5<1.5] yes=17,no=18,missing=17
				17:leaf=-0.0133911
				18:[f4<750.5] yes=33,no=34,missing=33
					33:leaf=-0.0180459
					34:[f3<0.776679] yes=49,no=50,missing=49
						49:[f4<3487] yes=63,no=64,missing=63
							63:leaf=-0.0153597
							64:leaf=-0.0167481
						50:[f5<9.5] yes=65,no=66,missing=65
							65:leaf=-0.0160291
							66:[f4<3708] yes=73,no=74,missing=73
								73:leaf=-0.0155715
								74:leaf=-0.0110597
		4:[f5<14.5] yes=9,no=10,missing=9
			9:[f9<1.5] yes=19,no=20,missing=19
				19:leaf=-0.0179752
				20:[f3<0.468803] yes=35,no=36,missing=35
					35:leaf=-0.0177852
					36:[f4<6011.5] yes=51,no=52,missing=51
						51:leaf=-0.0125271
						52:[f3<390] yes=67,no=68,missing=67
							67:leaf=-0.0157725
							68:leaf=-0.0178785
			10:[f3<0.545619] yes=21,no=22,missing=21
				21:leaf=-0.0173192
				22:[f3<2.53699] yes=37,no=38,missing=37
					37:[f3<0.871066] yes=53,no=54,missing=53
						53:[f4<10019] yes=69,no=70,missing=69
							69:leaf=-0.0164631
							70:leaf=-0.0130954
						54:leaf=-0.0127123
					38:leaf=-0.0170113
	2:[f6<1.5] yes=5,no=6,missing=5
		5:[f4<7404] yes=11,no=12,missing=11
			11:[f3<0.262177] yes=23,no=24,missing=23
				23:[f4<3008.5] yes=39,no=40,missing=39
					39:leaf=-0.00996028
					40:[f4<4801.87] yes=55,no=56,missing=55
						55:leaf=-0.0047379
						56:leaf=-0.00813778
				24:[f4<5505.34] yes=41,no=42,missing=41
					41:[f4<2566.81] yes=57,no=58,missing=57
						57:leaf=-0.00497668
						58:[f3<0.508945] yes=71,no=72,missing=71
							71:leaf=-0.00341421
							72:leaf=0.000330203
					42:leaf=-0.00665094
			12:leaf=-0.0100954
		6:[f3<0.176145] yes=13,no=14,missing=13
			13:[f3<0.02563] yes=25,no=26,missing=25
				25:leaf=-0.00464438
				26:leaf=-0.000639632
			14:[f6<3.5] yes=27,no=28,missing=27
				27:[f5<7.5] yes=43,no=44,missing=43
					43:[f3<0.502625] yes=59,no=60,missing=59
						59:leaf=0.00183993
						60:leaf=-0.000108751
					44:leaf=0.0042598
				28:leaf=0.00747494
booster[6]:
0:[f6<0.5] yes=1,no=2,missing=1
	1:[f0<0.589583] yes=3,no=4,missing=3
		3:[f2<1.5] yes=7,no=8,missing=7
			7:[f8<0.5] yes=15,no=16,missing=15
				15:[f0<0.227577] yes=29,no=30,missing=29
					29:[f2<0.5] yes=49,no=50,missing=49
						49:[f7<4.5] yes=61,no=62,missing=61
							61:leaf=-0.0185514
							62:leaf=-0.015952
						50:leaf=-0.0173994
					30:[f7<2.5] yes=51,no=52,missing=51
						51:[f2<0.5] yes=63,no=64,missing=63
							63:leaf=-0.017815
							64:leaf=-0.0161426
						52:leaf=-0.015296
				16:[f2<0.5] yes=31,no=32,missing=31
					31:leaf=-0.0147172
					32:leaf=-0.0114735
			8:[f2<2.5] yes=17,no=18,missing=17
				17:leaf=-0.0135097
				18:[f0<0.23798] yes=33,no=34,missing=33
					33:leaf=-0.0111821
					34:leaf=-0.00794663
		4:[f8<0.5] yes=9,no=10,missing=9
			9:[f2<1.5] yes=19,no=20,missing=19
				19:[f2<0.5] yes=35,no=36,missing=35
					35:[f0<1.00229] yes=53,no=54,missing=53
						53:[f0<0.771432] yes=65,no=66,missing=65
							65:leaf=-0.0167486
							66:[f7<0.5] yes=73,no=74,missing=73
								73:leaf=-0.0151572
								74:[f0<0.999667] yes=75,no=76,missing=75
									75:leaf=-0.0154804
									76:leaf=-0.0173503
						54:[f7<0.5] yes=67,no=68,missing=67
							67:leaf=-0.0115399
							68:leaf=-0.0141517
					36:[f0<0.999766] yes=55,no=56,missing=55
						55:[f7<0.5] yes=69,no=70,missing=69
							69:leaf=-0.0123807
							70:leaf=-0.0142944
						56:leaf=-0.0101304
				20:[f0<0.984006] yes=37,no=38,missing=37
					37:[f2<2.5] yes=57,no=58,missing=57
						57:leaf=-0.0100843
						58:leaf=-0.00646015
					38:leaf=-0.00240092
			10:[f0<0.858595] yes=21,no=22,missing=21
				21:leaf=-0.00865808
				22:[f2<0.5] yes=39,no=40,missing=39
					39:leaf=-0.00486815
					40:leaf=-0.00167474
	2:[f8<0.5] yes=5,no=6,missing=5
		5:[f0<0.589461] yes=11,no=12,missing=11
			11:[f2<0.5] yes=23,no=24,missing=23
				23:[f0<0.173224] yes=41,no=42,missing=41
					41:leaf=-0.0133681
					42:leaf=-0.0108965
				24:leaf=-0.00760724
			12:[f6<1.5] yes=25,no=26,missing=25
				25:[f2<1.5] yes=43,no=44,missing=43
					43:[f2<0.5] yes=59,no=60,missing=59
						59:[f0<0.990399] yes=71,no=72,missing=71
							71:leaf=-0.00850193
							72:leaf=-0.00638773
						60:leaf=-0.00591947
					44:leaf=-0.000678102
				26:[f2<0.5] yes=45,no=46,missing=45
					45:leaf=-0.00229575
					46:leaf=0.00408893
		6:[f0<0.734444] yes=13,no=14,missing=13
			13:leaf=-0.00333742
			14:[f7<0.5] yes=27,no=28,missing=27
				27:[f2<1.5] yes=47,no=48,missing=47
					47:leaf=0.00205953
					48:leaf=0.0044049
				28:leaf=0.00741924
booster[7]:
0:[f0<0.681742] yes=1,no=2,missing=1
	1:[f0<0.385526] yes=3,no=4,missing=3
		3:[f0<0.131328] yes=7,no=8,missing=7
			7:[f7<4.5] yes=15,no=16,missing=15
				15:[f1<33.5] yes=27,no=28,missing=27
					27:leaf=-0.0172964
					28:leaf=-0.0182106
				16:leaf=-0.0153184
			8:[f7<3.5] yes=17,no=18,missing=17
				17:[f1<47.5] yes=29,no=30,missing=29
					29:leaf=-0.0169432
					30:leaf=-0.0177563
				18:leaf=-0.0144041
		4:[f1<55.5] yes=9,no=10,missing=9
			9:[f0<0.493622] yes=19,no=20,missing=19
				19:[f4<5416.5] yes=31,no=32,missing=31
					31:leaf=-0.0153497
					32:leaf=-0.0167936
				20:[f4<6369.43] yes=33,no=34,missing=33
					33:[f5<10.5] yes=43,no=44,missing=43
						43:leaf=-0.0144168
						44:leaf=-0.0122485
					34:leaf=-0.0155966
			10:leaf=-0.0166756
	2:[f0<1.0051] yes=5,no=6,missing=5
		5:[f1<62.5] yes=11,no=12,missing=11
			11:[f0<0.873127] yes=21,no=22,missing=21
				21:[f5<15.5] yes=35,no=36,missing=35
					35:[f4<7168.23] yes=45,no=46,missing=45
						45:[f0<0.778527] yes=55,no=56,missing=55
							55:leaf=-0.0137476
							56:[f1<48.5] yes=63,no=64,missing=63
								63:[f4<4081.28] yes=71,no=72,missing=71
									71:leaf=-0.0137132
									72:leaf=-0.0117083
								64:leaf=-0.0103741
						46:leaf=-0.0144697
					36:leaf=-0.00982288
				22:[f4<6499.5] yes=37,no=38,missing=37
					37:[f5<8.5] yes=47,no=48,missing=47
						47:[f5<0.5] yes=57,no=58,missing=57
							57:[f4<3377.06] yes=65,no=66,missing=65
								65:[f1<30.5] yes=73,no=74,missing=73
									73:leaf=-0.00968049
									74:leaf=-0.00505359
								66:leaf=-0.00961037
							58:[f4<1022] yes=67,no=68,missing=67
								67:leaf=-0.0148117
								68:[f0<0.978383] yes=75,no=76,missing=75
									75:leaf=-0.0111489
									76:[f4<4829.68] yes=77,no=78,missing=77
										77:[f5<5.5] yes=79,no=80,missing=79
											79:[f4<3838.11] yes=83,no=84,missing=83
												83:[f1<48.5] yes=85,no=86,missing=85
													85:[f1<31.5] yes=89,no=90,missing=89
														89:leaf=-0.0107856
														90:[f4<2581.5] yes=91,no=92,missing=91
															91:leaf=-0.00979453
															92:leaf=-0.00743394
													86:leaf=-0.0120628
												84:[f4<4249] yes=87,no=88,missing=87
													87:leaf=-0.00584057
													88:leaf=-0.00912208
											80:leaf=-0.00693432
										78:[f1<42.5] yes=81,no=82,missing=81
											81:leaf=-0.0122366
											82:leaf=-0.0099005
						48:[f0<0.953959] yes=59,no=60,missing=59
							59:leaf=-0.00829652
							60:leaf=-0.00580322
					38:[f7<0.5] yes=49,no=50,missing=49
						49:leaf=-0.0105381
						50:[f5<12.5] yes=61,no=62,missing=61
							61:[f1<42.5] yes=69,no=70,missing=69
								69:leaf=-0.0113774
								70:leaf=-0.0138151
							62:leaf=-0.010813
			12:[f4<6515.16] yes=23,no=24,missing=23
				23:[f1<67.5] yes=39,no=40,missing=39
					39:leaf=-0.0124043
					40:[f0<0.99994] yes=51,no=52,missing=51
						51:leaf=-0.0128888
						52:leaf=-0.0168256
				24:leaf=-0.0162937
		6:[f0<1.4829] yes=13,no=14,missing=13
			13:[f0<1.14557] yes=25,no=26,missing=25
				25:[f4<3275] yes=41,no=42,missing=41
					41:leaf=-0.00700791
					42:[f1<42.5] yes=53,no=54,missing=53
						53:leaf=0.00198407
						54:leaf=-0.0044943
				26:leaf=0.00197656
			14:leaf=-0.00814196
booster[8]:
0:[f8<0.5] yes=1,no=2,missing=1
	1:[f0<0.68202] yes=3,no=4,missing=3
		3:[f0<0.295261] yes=7,no=8,missing=7
			7:[f7<4.5] yes=15,no=16,missing=15
				15:[f0<0.131837] yes=29,no=30,missing=29
					29:leaf=-0.0180529
					30:leaf=-0.017552
				16:leaf=-0.013876
			8:[f0<0.495138] yes=17,no=18,missing=17
				17:leaf=-0.0168145
				18:leaf=-0.0159583
		4:[f0<1.00086] yes=9,no=10,missing=9
			9:[f9<3.5] yes=19,no=20,missing=19
				19:[f0<0.813074] yes=31,no=32,missing=31
					31:[f3<0.562866] yes=43,no=44,missing=43
						43:leaf=-0.0151112
						44:leaf=-0.0133561
					32:[f3<0.421685] yes=45,no=46,missing=45
						45:[f7<0.5] yes=51,no=52,missing=51
							51:[f9<1.5] yes=55,no=56,missing=55
								55:[f3<0.00351397] yes=63,no=64,missing=63
									63:leaf=-0.014783
									64:[f0<0.954466] yes=73,no=74,missing=73
										73:[f3<0.159894] yes=81,no=82,missing=81
											81:leaf=-0.0158984
											82:leaf=-0.0133713
										74:[f3<0.0434382] yes=83,no=84,missing=83
											83:leaf=-0.0102854
											84:leaf=-0.0129545
								56:[f3<0.08025] yes=65,no=66,missing=65
									65:leaf=-0.00825109
									66:leaf=-0.0135476
							52:[f9<0.5] yes=57,no=58,missing=57
								57:[f0<0.99964] yes=67,no=68,missing=67
									67:leaf=-0.0119527
									68:leaf=-0.0151931
								58:leaf=-0.0157606
						46:[f9<0.5] yes=53,no=54,missing=53
							53:[f3<1324] yes=59,no=60,missing=59
								59:[f3<17.5] yes=69,no=70,missing=69
									69:[f3<0.532928] yes=75,no=76,missing=75
										75:leaf=-0.0121316
										76:leaf=-0.0141191
									70:[f3<276.5] yes=77,no=78,missing=77
										77:leaf=-0.0101806
										78:leaf=-0.0130523
								60:leaf=-0.015355
							54:[f7<0.5] yes=61,no=62,missing=61
								61:leaf=-0.00990167
								62:[f3<1.50739] yes=71,no=72,missing=71
									71:[f3<0.577117] yes=79,no=80,missing=79
										79:leaf=-0.0129131
										80:[f9<1.5] yes=85,no=86,missing=85
											85:leaf=-0.0114141
											86:leaf=-0.00897927
									72:leaf=-0.0139847
				20:leaf=-0.0105115
			10:[f0<1.40692] yes=21,no=22,missing=21
				21:[f0<1.0904] yes=33,no=34,missing=33
					33:[f3<0.535581] yes=47,no=48,missing=47
						47:leaf=-0.00787925
						48:leaf=-0.00496111
					34:leaf=-0.0031102
				22:leaf=-0.0110567
	2:[f0<0.858123] yes=5,no=6,missing=5
		5:[f8<1.5] yes=11,no=12,missing=11
			11:[f0<0.516101] yes=23,no=24,missing=23
				23:[f0<0.0207307] yes=35,no=36,missing=35
					35:leaf=-0.00942183
					36:[f7<0.5] yes=49,no=50,missing=49
						49:leaf=-0.0103761
						50:leaf=-0.013401
				24:[f3<0.41331] yes=37,no=38,missing=37
					37:leaf=-0.00894207
					38:leaf=-0.00546986
			12:leaf=-0.00266732
		6:[f3<0.406659] yes=13,no=14,missing=13
			13:[f8<1.5] yes=25,no=26,missing=25
				25:[f9<0.5] yes=39,no=40,missing=39
					39:leaf=-0.00426882
					40:leaf=-0.00292301
				26:leaf=0.00091995
			14:[f8<1.5] yes=27,no=28,missing=27
				27:[f3<0.892019] yes=41,no=42,missing=41
					41:leaf=0.000159716
					42:leaf=0.00262285
				28:leaf=0.00744826
booster[9]:
0:[f8<0.5] yes=1,no=2,missing=1
	1:[f0<0.706274] yes=3,no=4,missing=3
		3:[f2<0.5] yes=7,no=8,missing=7
			7:[f0<0.295206] yes=15,no=16,missing=15
				15:leaf=-0.0179629
				16:[f0<0.546298] yes=29,no=30,missing=29
					29:leaf=-0.0171214
					30:[f5<16.5] yes=47,no=48,missing=47
						47:leaf=-0.0162276
						48:leaf=-0.0137098
			8:[f2<1.5] yes=17,no=18,missing=17
				17:[f0<0.384103] yes=31,no=32,missing=31
					31:leaf=-0.0163083
					32:[f5<9.5] yes=49,no=50,missing=49
						49:leaf=-0.0150581
						50:leaf=-0.0130481
				18:[f0<0.533258] yes=33,no=34,missing=33
					33:[f2<2.5] yes=51,no=52,missing=51
						51:leaf=-0.0139584
						52:leaf=-0.011156
					34:leaf=-0.00813202
		4:[f2<0.5] yes=9,no=10,missing=9
			9:[f5<1.5] yes=19,no=20,missing=19
				19:[f9<1.5] yes=35,no=36,missing=35
					35:[f5<0.5] yes=53,no=54,missing=53
						53:leaf=-0.0112459
						54:leaf=-0.013065
					36:leaf=-0.00699501
				20:[f0<1.00202] yes=37,no=38,missing=37
					37:[f5<11.5] yes=55,no=56,missing=55
						55:[f0<0.854221] yes=67,no=68,missing=67
							67:leaf=-0.0164645
							68:leaf=-0.01539
						56:leaf=-0.0133599
					38:[f0<1.06136] yes=57,no=58,missing=57
						57:leaf=-0.00958959
						58:leaf=-0.0129047
			10:[f0<1.00397] yes=21,no=22,missing=21
				21:[f2<1.5] yes=39,no=40,missing=39
					39:[f5<3.5] yes=59,no=60,missing=59
						59:leaf=-0.00840517
						60:leaf=-0.0111932
					40:[f2<2.5] yes=61,no=62,missing=61
						61:[f0<0.956032] yes=69,no=70,missing=69
							69:leaf=-0.00742097
							70:leaf=-0.00546275
						62:leaf=-0.00259968
				22:[f2<1.5] yes=41,no=42,missing=41
					41:leaf=-0.00309109
					42:leaf=0.000992437
	2:[f0<0.751265] yes=5,no=6,missing=5
		5:[f2<1.5] yes=11,no=12,missing=11
			11:[f5<4.5] yes=23,no=24,missing=23
				23:leaf=-0.00649102
				24:[f0<0.181251] yes=43,no=44,missing=43
					43:leaf=-0.0135572
					44:[f5<8.5] yes=63,no=64,missing=63
						63:leaf=-0.0114448
						64:leaf=-0.0091901
			12:leaf=-0.00496267
		6:[f8<1.5] yes=13,no=14,missing=13
			13:[f0<1.01677] yes=25,no=26,missing=25
				25:[f2<1.5] yes=45,no=46,missing=45
					45:[f0<0.962221] yes=65,no=66,missing=65
						65:leaf=-0.00567207
						66:[f5<2.5] yes=71,no=72,missing=71
							71:leaf=-0.00334465
							72:leaf=-0.00252962
					46:leaf=-0.00109
				26:leaf=0.00298696
			14:[f9<0.5] yes=27,no=28,missing=27
				27:leaf=0.00306406
				28:leaf=0.00732903
booster[10]:
0:[f6<0.5] yes=1,no=2,missing=1
	1:[f0<0.633734] yes=3,no=4,missing=3
		3:[f8<0.5] yes=7,no=8,missing=7
			7:[f2<1.5] yes=15,no=16,missing=15
				15:[f0<0.173811] yes=29,no=30,missing=29
					29:[f2<0.5] yes=47,no=48,missing=47
						47:leaf=-0.0179193
						48:leaf=-0.0167605
					30:[f2<0.5] yes=49,no=50,missing=49
						49:leaf=-0.017103
						50:leaf=-0.0155884
				16:[f0<0.332304] yes=31,no=32,missing=31
					31:leaf=-0.0139456
					32:leaf=-0.0109889
			8:[f2<0.5] yes=17,no=18,missing=17
				17:[f0<0.222271] yes=33,no=34,missing=33
					33:leaf=-0.0139381
					34:leaf=-0.0116063
				18:leaf=-0.00977642
		4:[f2<0.5] yes=9,no=10,missing=9
			9:[f8<0.5] yes=19,no=20,missing=19
				19:[f0<1.00331] yes=35,no=36,missing=35
					35:[f0<0.999594] yes=51,no=52,missing=51
						51:[f0<0.772045] yes=61,no=62,missing=61
							61:leaf=-0.0158948
							62:leaf=-0.0147012
						52:leaf=-0.0160267
					36:[f0<1.08158] yes=53,no=54,missing=53
						53:leaf=-0.0107273
						54:leaf=-0.0135929
				20:leaf=-0.00758882
			10:[f0<1.00012] yes=21,no=22,missing=21
				21:[f8<0.5] yes=37,no=38,missing=37
					37:[f2<1.5] yes=55,no=56,missing=55
						55:[f0<0.801866] yes=63,no=64,missing=63
							63:leaf=-0.014049
							64:leaf=-0.0109143
						56:[f2<2.5] yes=65,no=66,missing=65
							65:leaf=-0.00914248
							66:leaf=-0.00641018
					38:[f0<0.909191] yes=57,no=58,missing=57
						57:leaf=-0.00604326
						58:leaf=-0.00278565
				22:[f0<1.06141] yes=39,no=40,missing=39
					39:leaf=-0.00227545
					40:leaf=0.000673646
	2:[f8<0.5] yes=5,no=6,missing=5
		5:[f0<0.405392] yes=11,no=12,missing=11
			11:[f2<0.5] yes=23,no=24,missing=23
				23:leaf=-0.0116786
				24:leaf=-0.00803794
			12:[f6<1.5] yes=25,no=26,missing=25
				25:[f2<1.5] yes=41,no=42,missing=41
					41:[f9<1.5] yes=59,no=60,missing=59
						59:[f0<0.904275] yes=67,no=68,missing=67
							67:leaf=-0.0091516
							68:leaf=-0.00642664
						60:leaf=-0.0034709
					42:leaf=-0.000756949
				26:[f2<0.5] yes=43,no=44,missing=43
					43:leaf=-0.00264384
					44:leaf=0.0035826
		6:[f0<0.739178] yes=13,no=14,missing=13
			13:leaf=-0.0025136
			14:[f6<2.5] yes=27,no=28,missing=27
				27:[f2<1.5] yes=45,no=46,missing=45
					45:leaf=0.000941097
					46:leaf=0.00578724
				28:leaf=0.00702643
booster[11]:
0:[f6<0.5] yes=1,no=2,missing=1
	1:[f0<0.55346] yes=3,no=4,missing=3
		3:[f2<1.5] yes=7,no=8,missing=7
			7:[f2<0.5] yes=15,no=16,missing=15
				15:[f0<0.293258] yes=31,no=32,missing=31
					31:leaf=-0.0176357
					32:leaf=-0.0166701
				16:[f0<0.470094] yes=33,no=34,missing=33
					33:leaf=-0.0160271
					34:leaf=-0.0128413
			8:[f2<2.5] yes=17,no=18,missing=17
				17:[f3<0.389335] yes=35,no=36,missing=35
					35:leaf=-0.0143488
					36:leaf=-0.0122089
				18:leaf=-0.00870093
		4:[f2<0.5] yes=9,no=10,missing=9
			9:[f0<1.00194] yes=19,no=20,missing=19
				19:[f3<0.549269] yes=37,no=38,missing=37
					37:[f3<0.117301] yes=51,no=52,missing=51
						51:[f3<0.000399081] yes=63,no=64,missing=63
							63:leaf=-0.0152597
							64:leaf=-0.0136333
						52:[f0<0.823806] yes=65,no=66,missing=65
							65:leaf=-0.0163317
							66:leaf=-0.015175
					38:[f9<0.5] yes=53,no=54,missing=53
						53:leaf=-0.0149711
						54:[f3<559] yes=67,no=68,missing=67
							67:[f3<1.4356] yes=75,no=76,missing=75
								75:leaf=-0.0132702
								76:leaf=-0.011083
							68:leaf=-0.0151277
				20:[f0<1.0731] yes=39,no=40,missing=39
					39:leaf=-0.0106606
					40:leaf=-0.013247
			10:[f0<1] yes=21,no=22,missing=21
				21:[f2<1.5] yes=41,no=42,missing=41
					41:[f0<0.796542] yes=55,no=56,missing=55
						55:[f9<1.5] yes=69,no=70,missing=69
							69:leaf=-0.0144437
							70:leaf=-0.0119645
						56:leaf=-0.0109965
					42:[f3<0.565802] yes=57,no=58,missing=57
						57:[f2<2.5] yes=71,no=72,missing=71
							71:leaf=-0.010733
							72:leaf=-0.00849838
						58:leaf=-0.00419578
				22:[f3<0.412631] yes=43,no=44,missing=43
					43:leaf=-0.00264032
					44:leaf=-0.000398811
	2:[f6<1.5] yes=5,no=6,missing=5
		5:[f0<0.397271] yes=11,no=12,missing=11
			11:[f3<0.404898] yes=23,no=24,missing=23
				23:leaf=-0.0122321
				24:leaf=-0.00867713
			12:[f2<0.5] yes=25,no=26,missing=25
				25:[f9<0.5] yes=45,no=46,missing=45
					45:[f3<0.252984] yes=59,no=60,missing=59
						59:leaf=-0.00977487
						60:leaf=-0.00687891
					46:leaf=-0.00588659
				26:[f2<2.5] yes=47,no=48,missing=47
					47:[f3<0.506257] yes=61,no=62,missing=61
						61:[f0<0.959665] yes=73,no=74,missing=73
							73:leaf=-0.0040263
							74:leaf=-0.00249397
						62:leaf=1.95192e-05
					48:leaf=0.00156894
		6:[f2<1.5] yes=13,no=14,missing=13
			13:[f6<2.5] yes=27,no=28,missing=27
				27:[f3<0.240506] yes=49,no=50,missing=49
					49:leaf=-0.00477285
					50:leaf=-0.00123581
				28:leaf=0.00429539
			14:[f0<0.974475] yes=29,no=30,missing=29
				29:leaf=0.0037312
				30:leaf=0.00807641
booster[12]:
0:[f6<0.5] yes=1,no=2,missing=1
	1:[f8<0.5] yes=3,no=4,missing=3
		3:[f7<3.5] yes=7,no=8,missing=7
			7:[f4<5500.35] yes=15,no=16,missing=15
				15:[f9<0.5] yes=27,no=28,missing=27
					27:leaf=-0.0164674
					28:[f7<0.5] yes=41,no=42,missing=41
						41:leaf=-0.015247
						42:leaf=-0.016095
				16:[f9<1.5] yes=29,no=30,missing=29
					29:leaf=-0.0170693
					30:[f4<6571.5] yes=43,no=44,missing=43
						43:leaf=-0.0155493
						44:leaf=-0.0167867
			8:[f4<8667.82] yes=17,no=18,missing=17
				17:leaf=-0.012225
				18:[f7<5.5] yes=31,no=32,missing=31
					31:leaf=-0.0155051
					32:leaf=-0.0125863
		4:[f8<1.5] yes=9,no=10,missing=9
			9:[f4<7059.53] yes=19,no=20,missing=19
				19:[f4<2557.5] yes=33,no=34,missing=33
					33:leaf=-0.0110471
					34:[f9<0.5] yes=45,no=46,missing=45
						45:leaf=-0.00952809
						46:[f4<4633] yes=49,no=50,missing=49
							49:leaf=-0.0082429
							50:leaf=-0.00606631
				20:leaf=-0.0115546
			10:leaf=-0.00396151
	2:[f8<0.5] yes=5,no=6,missing=5
		5:[f6<1.5] yes=11,no=12,missing=11
			11:[f4<5309.51] yes=21,no=22,missing=21
				21:[f9<1.5] yes=35,no=36,missing=35
					35:[f4<2907.82] yes=47,no=48,missing=47
						47:leaf=-0.00428415
						48:[f4<4197.5] yes=51,no=52,missing=51
							51:leaf=-0.00784427
							52:leaf=-0.00511295
					36:leaf=-0.00301974
				22:[f9<0.5] yes=37,no=38,missing=37
					37:leaf=-0.0101505
					38:leaf=-0.00774048
			12:[f6<2.5] yes=23,no=24,missing=23
				23:leaf=-0.00179202
				24:leaf=0.00126916
		6:[f6<2.5] yes=13,no=14,missing=13
			13:[f8<1.5] yes=25,no=26,missing=25
				25:[f4<5726.33] yes=39,no=40,missing=39
					39:leaf=0.00139254
					40:leaf=-0.000997253
				26:leaf=0.00294271
			14:leaf=0.00493673
booster[13]:
0:[f6<0.5] yes=1,no=2,missing=1
	1:[f2<0.5] yes=3,no=4,missing=3
		3:[f5<0.5] yes=7,no=8,missing=7
			7:leaf=-0.011985
			8:[f4<5316.04] yes=15,no=16,missing=15
				15:[f5<1.5] yes=29,no=30,missing=29
					29:[f3<0.00122437] yes=47,no=48,missing=47
						47:leaf=-0.0168159
						48:leaf=-0.0138396
					30:[f3<0.0369065] yes=49,no=50,missing=49
						49:leaf=-0.017379
						50:leaf=-0.0164494
				16:[f5<13.5] yes=31,no=32,missing=31
					31:leaf=-0.0171188
					32:[f3<0.522219] yes=51,no=52,missing=51
						51:leaf=-0.0168061
						52:[f3<1.51842] yes=63,no=64,missing=63
							63:[f3<0.654767] yes=69,no=70,missing=69
								69:leaf=-0.0157092
								70:[f5<17.5] yes=71,no=72,missing=71
									71:leaf=-0.0143167
									72:leaf=-0.0115738
							64:leaf=-0.0168781
		4:[f2<1.5] yes=9,no=10,missing=9
			9:[f4<4249.5] yes=17,no=18,missing=17
				17:[f3<1.35304] yes=33,no=34,missing=33
					33:leaf=-0.0126498
					34:leaf=-0.00995133
				18:[f3<0.408313] yes=35,no=36,missing=35
					35:leaf=-0.0151455
					36:leaf=-0.0136348
			10:[f2<2.5] yes=19,no=20,missing=19
				19:[f3<0.576746] yes=37,no=38,missing=37
					37:[f5<6.5] yes=53,no=54,missing=53
						53:leaf=-0.00919482
						54:[f4<5269] yes=65,no=66,missing=65
							65:leaf=-0.0107918
							66:leaf=-0.013256
					38:[f3<1.23582] yes=55,no=56,missing=55
						55:leaf=-0.00761041
						56:leaf=-0.00983066
				20:[f4<6502] yes=39,no=40,missing=39
					39:[f3<0.43937] yes=57,no=58,missing=57
						57:leaf=-0.00740852
						58:leaf=-0.00136533
					40:leaf=-0.00923673
	2:[f6<1.5] yes=5,no=6,missing=5
		5:[f2<1.5] yes=11,no=12,missing=11
			11:[f4<6902.5] yes=21,no=22,missing=21
				21:[f3<0.506207] yes=41,no=42,missing=41
					41:[f2<0.5] yes=59,no=60,missing=59
						59:[f5<5.5] yes=67,no=68,missing=67
							67:leaf=-0.00676746
							68:leaf=-0.0111119
						60:leaf=-0.00561963
					42:[f4<3945.42] yes=61,no=62,missing=61
						61:leaf=-0.00528414
						62:leaf=-0.00124102
				22:leaf=-0.0101697
			12:[f4<5842.09] yes=23,no=24,missing=23
				23:leaf=0.00274115
				24:leaf=-0.00147288
		6:[f3<0.17634] yes=13,no=14,missing=13
			13:[f4<3348.5] yes=25,no=26,missing=25
				25:leaf=-0.00232864
				26:leaf=0.00128652
			14:[f6<2.5] yes=27,no=28,missing=27
				27:[f4<4594.63] yes=43,no=44,missing=43
					43:leaf=0.00301445
					44:leaf=0.000196364
				28:[f3<0.566455] yes=45,no=46,missing=45
					45:leaf=0.00499221
					46:leaf=0.00958785
booster[14]:
0:[f8<0.5] yes=1,no=2,missing=1
	1:[f5<1.5] yes=3,no=4,missing=3
		3:[f9<1.5] yes=7,no=8,missing=7
			7:[f4<5275.37] yes=15,no=16,missing=15
				15:[f4<1237] yes=27,no=28,missing=27
					27:leaf=-0.0161008
					28:[f3<22.5] yes=41,no=42,missing=41
						41:[f5<0.5] yes=55,no=56,missing=55
							55:leaf=-0.0104759
							56:[f3<0.0132602] yes=67,no=68,missing=67
								67:leaf=-0.015859
								68:leaf=-0.0108183
						42:leaf=-0.00775791
				16:leaf=-0.0161221
			8:leaf=-0.00852017
		4:[f4<5516.09] yes=9,no=10,missing=9
			9:[f3<0.0307614] yes=17,no=18,missing=17
				17:leaf=-0.0169391
				18:[f9<0.5] yes=29,no=30,missing=29
					29:[f3<0.935242] yes=43,no=44,missing=43
						43:leaf=-0.0158424
						44:[f4<1159.88] yes=57,no=58,missing=57
							57:leaf=-0.0165354
							58:[f5<10.5] yes=69,no=70,missing=69
								69:leaf=-0.0145072
								70:[f3<1.59712] yes=77,no=78,missing=77
									77:leaf=-0.0138616
									78:leaf=-0.0108849
					30:[f5<2.5] yes=45,no=46,missing=45
						45:leaf=-0.0119034
						46:[f5<4.5] yes=59,no=60,missing=59
							59:[f9<2.5] yes=71,no=72,missing=71
								71:leaf=-0.0146467
								72:leaf=-0.0115689
							60:[f3<0.55299] yes=73,no=74,missing=73
								73:[f4<3075] yes=79,no=80,missing=79
									79:leaf=-0.014048
									80:leaf=-0.0157973
								74:[f4<4894] yes=81,no=82,missing=81
									81:leaf=-0.0149401
									82:leaf=-0.0119688
			10:[f5<13.5] yes=19,no=20,missing=19
				19:[f9<0.5] yes=31,no=32,missing=31
					31:leaf=-0.016907
					32:[f4<6596.72] yes=47,no=48,missing=47
						47:[f3<0.810079] yes=61,no=62,missing=61
							61:leaf=-0.0155986
							62:leaf=-0.0134036
						48:[f3<0.3599] yes=63,no=64,missing=63
							63:leaf=-0.0167921
							64:[f3<0.950941] yes=75,no=76,missing=75
								75:[f3<0.478288] yes=83,no=84,missing=83
									83:leaf=-0.016269
									84:leaf=-0.0142563
								76:leaf=-0.0166095
				20:[f4<6623.16] yes=33,no=34,missing=33
					33:[f3<0.609508] yes=49,no=50,missing=49
						49:leaf=-0.0150033
						50:leaf=-0.012148
					34:[f3<0.358912] yes=51,no=52,missing=51
						51:leaf=-0.0163414
						52:[f4<16653.9] yes=65,no=66,missing=65
							65:leaf=-0.0154977
							66:leaf=-0.0124446
	2:[f8<1.5] yes=5,no=6,missing=5
		5:[f5<7.5] yes=11,no=12,missing=11
			11:[f3<0.431576] yes=21,no=22,missing=21
				21:[f3<0.0917498] yes=35,no=36,missing=35
					35:leaf=-0.00264758
					36:[f9<0.5] yes=53,no=54,missing=53
						53:leaf=-0.00734452
						54:leaf=-0.00405929
				22:[f4<4731.31] yes=37,no=38,missing=37
					37:leaf=0.000511523
					38:leaf=-0.00475392
			12:[f4<4166.5] yes=23,no=24,missing=23
				23:leaf=-0.00529033
				24:[f3<0.625711] yes=39,no=40,missing=39
					39:leaf=-0.0111522
					40:leaf=-0.00789566
		6:[f9<0.5] yes=13,no=14,missing=13
			13:leaf=-0.00190009
			14:[f3<0.385019] yes=25,no=26,missing=25
				25:leaf=0.0015825
				26:leaf=0.00487089
booster[15]:
0:[f8<0.5] yes=1,no=2,missing=1
	1:[f2<0.5] yes=3,no=4,missing=3
		3:[f5<0.5] yes=7,no=8,missing=7
			7:leaf=-0.0102236
			8:[f5<1.5] yes=15,no=16,missing=15
				15:[f3<0.00372967] yes=27,no=28,missing=27
					27:leaf=-0.0162663
					28:[f4<4975.35] yes=41,no=42,missing=41
						41:[f4<3100.11] yes=61,no=62,missing=61
							61:leaf=-0.0132846
							62:leaf=-0.0102162
						42:leaf=-0.0151599
				16:[f4<5342.92] yes=29,no=30,missing=29
					29:[f3<0.423115] yes=43,no=44,missing=43
						43:leaf=-0.0164674
						44:leaf=-0.0157816
					30:[f5<14.5] yes=45,no=46,missing=45
						45:leaf=-0.0168352
						46:[f3<0.525576] yes=63,no=64,missing=63
							63:leaf=-0.0164659
							64:[f3<1.90427] yes=77,no=78,missing=77
								77:[f3<0.672275] yes=81,no=82,missing=81
									81:leaf=-0.0155971
									82:leaf=-0.0126945
								78:leaf=-0.0165138
		4:[f2<1.5] yes=9,no=10,missing=9
			9:[f5<3.5] yes=17,no=18,missing=17
				17:[f3<0.0594482] yes=31,no=32,missing=31
					31:leaf=-0.0116448
					32:[f5<2.5] yes=47,no=48,missing=47
						47:leaf=-0.00671692
						48:leaf=-0.0100717
				18:[f4<6666.08] yes=33,no=34,missing=33
					33:[f3<1.01949] yes=49,no=50,missing=49
						49:[f5<6.5] yes=65,no=66,missing=65
							65:[f3<0.250807] yes=79,no=80,missing=79
								79:leaf=-0.0132838
								80:leaf=-0.010935
							66:leaf=-0.0138831
						50:[f5<7.5] yes=67,no=68,missing=67
							67:leaf=-0.0096675
							68:leaf=-0.0120761
					34:[f3<0.355278] yes=51,no=52,missing=51
						51:leaf=-0.0154656
						52:[f4<10659.5] yes=69,no=70,missing=69
							69:leaf=-0.014552
							70:leaf=-0.0111679
			10:[f2<3.5] yes=19,no=20,missing=19
				19:[f4<5274.45] yes=35,no=36,missing=35
					35:[f5<7.5] yes=53,no=54,missing=53
						53:[f3<0.356619] yes=71,no=72,missing=71
							71:leaf=-0.00531573
							72:leaf=-0.00190824
						54:[f3<0.548006] yes=73,no=74,missing=73
							73:leaf=-0.0101999
							74:leaf=-0.0069689
					36:[f3<0.563194] yes=55,no=56,missing=55
						55:[f4<7594] yes=75,no=76,missing=75
							75:leaf=-0.0106288
							76:leaf=-0.0136311
						56:leaf=-0.00704854
				20:leaf=-0.00124546
	2:[f2<1.5] yes=5,no=6,missing=5
		5:[f8<1.5] yes=11,no=12,missing=11
			11:[f5<5.5] yes=21,no=22,missing=21
				21:[f3<0.609519] yes=37,no=38,missing=37
					37:[f4<3091.5] yes=57,no=58,missing=57
						57:leaf=-0.00829011
						58:leaf=-0.00488626
					38:leaf=-0.00156735
				22:[f4<4223] yes=39,no=40,missing=39
					39:leaf=-0.00784744
					40:[f3<0.414967] yes=59,no=60,missing=59
						59:leaf=-0.0120365
						60:leaf=-0.0101555
			12:leaf=-0.000774045
		6:[f5<8.5] yes=13,no=14,missing=13
			13:[f3<0.26052] yes=23,no=24,missing=23
				23:leaf=-0.00143044
				24:leaf=0.00418189
			14:[f3<0.527756] yes=25,no=26,missing=25
				25:leaf=-0.0044231
				26:leaf=-0.00058977
booster[16]:
0:[f6<0.5] yes=1,no=2,missing=1
	1:[f0<0.607414] yes=3,no=4,missing=3
		3:[f2<1.5] yes=7,no=8,missing=7
			7:[f8<0.5] yes=15,no=16,missing=15
				15:[f0<0.324614] yes=31,no=32,missing=31
					31:[f2<0.5] yes=47,no=48,missing=47
						47:leaf=-0.0170459
						48:leaf=-0.0158535
					32:[f2<0.5] yes=49,no=50,missing=49
						49:leaf=-0.0160557
						50:leaf=-0.0145699
				16:[f0<0.251645] yes=33,no=34,missing=33
					33:leaf=-0.0137532
					34:leaf=-0.0112485
			8:[f2<2.5] yes=17,no=18,missing=17
				17:[f0<0.110754] yes=35,no=36,missing=35
					35:leaf=-0.0143648
					36:[f1<51.5] yes=51,no=52,missing=51
						51:leaf=-0.0106704
						52:leaf=-0.0133513
				18:leaf=-0.00854586
		4:[f2<0.5] yes=9,no=10,missing=9
			9:[f8<0.5] yes=19,no=20,missing=19
				19:[f1<56.5] yes=37,no=38,missing=37
					37:[f0<1.00241] yes=53,no=54,missing=53
						53:[f0<0.772756] yes=59,no=60,missing=59
							59:leaf=-0.0149248
							60:leaf=-0.0139259
						54:leaf=-0.0105186
					38:leaf=-0.0158546
				20:leaf=-0.00754179
			10:[f0<1] yes=21,no=22,missing=21
				21:[f2<2.5] yes=39,no=40,missing=39
					39:[f8<0.5] yes=55,no=56,missing=55
						55:[f2<1.5] yes=61,no=62,missing=61
							61:[f1<54.5] yes=65,no=66,missing=65
								65:[f1<40.5] yes=69,no=70,missing=69
									69:leaf=-0.0118382
									70:[f0<0.82239] yes=71,no=72,missing=71
										71:leaf=-0.0119909
										72:leaf=-0.00882342
								66:leaf=-0.0135946
							62:[f0<0.866002] yes=67,no=68,missing=67
								67:leaf=-0.00774678
								68:leaf=-0.0100006
						56:leaf=-0.00709026
					40:leaf=-0.00443591
				22:[f0<1.05598] yes=41,no=42,missing=41
					41:leaf=0.00111937
					42:leaf=-0.00292178
	2:[f6<1.5] yes=5,no=6,missing=5
		5:[f0<0.49503] yes=11,no=12,missing=11
			11:[f1<53.5] yes=23,no=24,missing=23
				23:leaf=-0.00871308
				24:leaf=-0.0129151
			12:[f8<0.5] yes=25,no=26,missing=25
				25:[f2<1.5] yes=43,no=44,missing=43
					43:[f1<35.5] yes=57,no=58,missing=57
						57:leaf=-0.00401664
						58:[f1<47.5] yes=63,no=64,missing=63
							63:leaf=-0.00857675
							64:leaf=-0.00586016
					44:leaf=-0.00190558
				26:leaf=0.00209701
		6:[f2<0.5] yes=13,no=14,missing=13
			13:[f1<45.5] yes=27,no=28,missing=27
				27:leaf=0.000538572
				28:leaf=-0.00252308
			14:[f8<0.5] yes=29,no=30,missing=29
				29:leaf=0.00272166
				30:[f1<43.5] yes=45,no=46,missing=45
					45:leaf=0.00322155
					46:leaf=0.00908423
booster[17]:
0:[f6<0.5] yes=1,no=2,missing=1
	1:[f0<0.616696] yes=3,no=4,missing=3
		3:[f0<0.311369] yes=7,no=8,missing=7
			7:[f0<0.131953] yes=15,no=16,missing=15
				15:leaf=-0.0168345
				16:[f5<8.5] yes=29,no=30,missing=29
					29:leaf=-0.0166241
					30:[f1<39.5] yes=45,no=46,missing=45
						45:leaf=-0.0146982
						46:leaf=-0.0160767
			8:[f4<6085.04] yes=17,no=18,missing=17
				17:[f5<9.5] yes=31,no=32,missing=31
					31:leaf=-0.0151334
					32:[f1<52.5] yes=47,no=48,missing=47
						47:[f5<13.5] yes=61,no=62,missing=61
							61:leaf=-0.0133735
							62:leaf=-0.0110019
						48:leaf=-0.0152442
				18:[f5<12.5] yes=33,no=34,missing=33
					33:leaf=-0.0160458
					34:[f1<53.5] yes=49,no=50,missing=49
						49:[f0<0.493964] yes=63,no=64,missing=63
							63:leaf=-0.0146184
							64:leaf=-0.0121204
						50:leaf=-0.0156814
		4:[f0<1.002] yes=9,no=10,missing=9
			9:[f1<62.5] yes=19,no=20,missing=19
				19:[f5<8.5] yes=35,no=36,missing=35
					35:[f5<1.5] yes=51,no=52,missing=51
						51:[f1<25.5] yes=65,no=66,missing=65
							65:leaf=-0.0145699
							66:[f4<4384.88] yes=75,no=76,missing=75
								75:[f1<35.5] yes=85,no=86,missing=85
									85:leaf=-0.00857758
									86:leaf=-0.0108563
								76:leaf=-0.0124757
						52:[f4<9402.5] yes=67,no=68,missing=67
							67:[f0<0.826285] yes=77,no=78,missing=77
								77:leaf=-0.0141461
								78:[f0<0.853495] yes=87,no=88,missing=87
									87:leaf=-0.0109048
									88:[f4<4241.5] yes=91,no=92,missing=91
										91:[f4<3767.5] yes=93,no=94,missing=93
											93:[f5<4.5] yes=97,no=98,missing=97
												97:leaf=-0.0137952
												98:leaf=-0.0116372
											94:leaf=-0.00973965
										92:[f1<36.5] yes=95,no=96,missing=95
											95:leaf=-0.0150509
											96:[f1<54.5] yes=99,no=100,missing=99
												99:[f0<0.969787] yes=101,no=102,missing=101
													101:leaf=-0.0112275
													102:leaf=-0.0133778
												100:leaf=-0.014678
							68:leaf=-0.0155493
					36:[f0<0.849766] yes=53,no=54,missing=53
						53:[f4<3360.5] yes=69,no=70,missing=69
							69:leaf=-0.00873155
							70:[f5<16.5] yes=79,no=80,missing=79
								79:leaf=-0.0138549
								80:leaf=-0.0111566
						54:[f4<6795.5] yes=71,no=72,missing=71
							71:[f1<39.5] yes=81,no=82,missing=81
								81:leaf=-0.00681314
								82:[f0<0.921698] yes=89,no=90,missing=89
									89:leaf=-0.00753608
									90:leaf=-0.0101388
							72:[f1<47.5] yes=83,no=84,missing=83
								83:leaf=-0.00993801
								84:leaf=-0.0126652
				20:[f5<9.5] yes=37,no=38,missing=37
					37:leaf=-0.015814
					38:[f0<0.800583] yes=55,no=56,missing=55
						55:leaf=-0.0148285
						56:leaf=-0.0115322
			10:[f0<1.39074] yes=21,no=22,missing=21
				21:[f0<1.0264] yes=39,no=40,missing=39
					39:leaf=-0.00881485
					40:[f4<4186.31] yes=57,no=58,missing=57
						57:leaf=-0.00325582
						58:leaf=-0.00510807
				22:leaf=-0.0120387
	2:[f6<1.5] yes=5,no=6,missing=5
		5:[f0<0.524421] yes=11,no=12,missing=11
			11:[f4<5323] yes=23,no=24,missing=23
				23:leaf=-0.00703675
				24:leaf=-0.0114966
			12:[f0<1] yes=25,no=26,missing=25
				25:[f1<51.5] yes=41,no=42,missing=41
					41:[f4<3570.93] yes=59,no=60,missing=59
						59:leaf=-0.00436648
						60:[f0<0.960061] yes=73,no=74,missing=73
							73:leaf=-0.00303837
							74:leaf=0.000388968
					42:leaf=-0.00573037
				26:leaf=0.00193298
		6:[f6<3.5] yes=13,no=14,missing=13
			13:[f0<0.889763] yes=27,no=28,missing=27
				27:leaf=-0.0026023
				28:[f5<3.5] yes=43,no=44,missing=43
					43:leaf=-0.000691469
					44:leaf=0.00661778
			14:leaf=0.00628584
booster[18]:
0:[f8<0.5] yes=1,no=2,missing=1
	1:[f0<0.678228] yes=3,no=4,missing=3
		3:[f0<0.305317] yes=7,no=8,missing=7
			7:[f7<2.5] yes=15,no=16,missing=15
				15:[f0<0.137488] yes=29,no=30,missing=29
					29:leaf=-0.0166926
					30:leaf=-0.0162293
				16:[f0<0.220871] yes=31,no=32,missing=31
					31:leaf=-0.0156519
					32:leaf=-0.0134941
			8:[f0<0.493455] yes=17,no=18,missing=17
				17:[f4<5978.21] yes=33,no=34,missing=33
					33:leaf=-0.0148736
					34:leaf=-0.015938
				18:[f4<2805] yes=35,no=36,missing=35
					35:[f4<2293.3] yes=49,no=50,missing=49
						49:leaf=-0.0135937
						50:leaf=-0.0110466
					36:leaf=-0.0146376
		4:[f0<1.00209] yes=9,no=10,missing=9
			9:[f4<6100.55] yes=19,no=20,missing=19
				19:[f4<944.5] yes=37,no=38,missing=37
					37:leaf=-0.0141729
					38:[f9<1.5] yes=51,no=52,missing=51
						51:[f4<5866.77] yes=57,no=58,missing=57
							57:[f4<5524.11] yes=61,no=62,missing=61
								61:[f0<0.81566] yes=67,no=68,missing=67
									67:[f9<0.5] yes=71,no=72,missing=71
										71:[f4<4342.5] yes=75,no=76,missing=75
											75:leaf=-0.0138911
											76:leaf=-0.0114979
										72:leaf=-0.010456
									68:[f4<4986.16] yes=73,no=74,missing=73
										73:[f4<4110.27] yes=77,no=78,missing=77
											77:[f4<3760.37] yes=81,no=82,missing=81
												81:[f4<3364.79] yes=85,no=86,missing=85
													85:[f4<3098.91] yes=87,no=88,missing=87
														87:[f4<2291.03] yes=89,no=90,missing=89
															89:[f4<1900.5] yes=91,no=92,missing=91
																91:[f4<1547.69] yes=93,no=94,missing=93
																	93:leaf=-0.012019
																	94:leaf=-0.00884419
																92:leaf=-0.0133928
															90:leaf=-0.0104125
														88:leaf=-0.0140257
													86:leaf=-0.00909653
												82:leaf=-0.0127957
											78:[f4<4609.31] yes=83,no=84,missing=83
												83:leaf=-0.00918244
												84:leaf=-0.0115167
										74:[f0<0.999454] yes=79,no=80,missing=79
											79:leaf=-0.0108195
											80:leaf=-0.0138427
								62:leaf=-0.0145034
							58:leaf=-0.00891503
						52:[f4<3436] yes=59,no=60,missing=59
							59:[f4<2508.5] yes=63,no=64,missing=63
								63:leaf=-0.0109095
								64:leaf=-0.00767426
							60:[f4<4445] yes=65,no=66,missing=65
								65:leaf=-0.0121258
								66:[f0<0.944185] yes=69,no=70,missing=69
									69:leaf=-0.00906824
									70:leaf=-0.0114317
				20:[f7<2.5] yes=39,no=40,missing=39
					39:leaf=-0.0134528
					40:leaf=-0.011455
			10:[f4<6013.31] yes=21,no=22,missing=21
				21:[f0<1.10225] yes=41,no=42,missing=41
					41:leaf=-0.00711114
					42:leaf=-0.00139934
				22:leaf=-0.0100873
	2:[f0<0.859488] yes=5,no=6,missing=5
		5:[f8<1.5] yes=11,no=12,missing=11
			11:[f0<0.486039] yes=23,no=24,missing=23
				23:[f4<5640] yes=43,no=44,missing=43
					43:[f4<3516.5] yes=53,no=54,missing=53
						53:leaf=-0.010249
						54:leaf=-0.00785859
					44:leaf=-0.0131222
				24:[f4<5528.52] yes=45,no=46,missing=45
					45:leaf=-0.0049821
					46:leaf=-0.00875998
			12:leaf=-0.00335371
		6:[f8<1.5] yes=13,no=14,missing=13
			13:[f4<2678] yes=25,no=26,missing=25
				25:leaf=-0.00542368
				26:[f0<0.999929] yes=47,no=48,missing=47
					47:leaf=-0.00139816
					48:[f4<5147.22] yes=55,no=56,missing=55
						55:leaf=-0.000455757
						56:leaf=0.00227932
			14:[f4<4069.49] yes=27,no=28,missing=27
				27:leaf=0.00160624
				28:leaf=0.00600611
booster[19]:
0:[f6<0.5] yes=1,no=2,missing=1
	1:[f8<0.5] yes=3,no=4,missing=3
		3:[f4<5327.35] yes=7,no=8,missing=7
			7:[f5<1.5] yes=15,no=16,missing=15
				15:[f4<1204.5] yes=29,no=30,missing=29
					29:leaf=-0.0158952
					30:leaf=-0.013585
				16:[f9<0.5] yes=31,no=32,missing=31
					31:leaf=-0.0157015
					32:leaf=-0.0149724
			8:[f5<9.5] yes=17,no=18,missing=17
				17:leaf=-0.0163086
				18:[f5<22.5] yes=33,no=34,missing=33
					33:[f9<0.5] yes=41,no=42,missing=41
						41:leaf=-0.0159991
						42:leaf=-0.0152755
					34:leaf=-0.0141708
		4:[f8<1.5] yes=9,no=10,missing=9
			9:[f4<5691] yes=19,no=20,missing=19
				19:[f5<6.5] yes=35,no=36,missing=35
					35:[f4<3300.38] yes=43,no=44,missing=43
						43:leaf=-0.00705392
						44:leaf=-0.00544196
					36:[f5<9.5] yes=45,no=46,missing=45
						45:leaf=-0.00963367
						46:leaf=-0.00654539
				20:leaf=-0.0103638
			10:leaf=-0.00198815
	2:[f8<0.5] yes=5,no=6,missing=5
		5:[f6<1.5] yes=11,no=12,missing=11
			11:[f4<4984.16] yes=21,no=22,missing=21
				21:[f5<4.5] yes=37,no=38,missing=37
					37:[f4<3198.5] yes=47,no=48,missing=47
						47:leaf=-0.00650048
						48:leaf=-0.00151855
					38:leaf=-0.00773455
				22:[f4<6802.52] yes=39,no=40,missing=39
					39:leaf=-0.00840987
					40:leaf=-0.0102239
			12:[f6<2.5] yes=23,no=24,missing=23
				23:leaf=-0.00216129
				24:leaf=0.00153941
		6:[f6<1.5] yes=13,no=14,missing=13
			13:[f9<0.5] yes=25,no=26,missing=25
				25:leaf=-0.00258268
				26:leaf=0.00199073
			14:[f5<3.5] yes=27,no=28,missing=27
				27:leaf=0.000182802
				28:leaf=0.00663416
booster[20]:
0:[f6<0.5] yes=1,no=2,missing=1
	1:[f0<0.607414] yes=3,no=4,missing=3
		3:[f2<0.5] yes=7,no=8,missing=7
			7:[f0<0.204395] yes=15,no=16,missing=15
				15:[f8<0.5] yes=31,no=32,missing=31
					31:leaf=-0.0165928
					32:leaf=-0.0139857
				16:[f8<0.5] yes=33,no=34,missing=33
					33:[f5<8.5] yes=51,no=52,missing=51
						51:leaf=-0.0161191
						52:leaf=-0.0152754
					34:leaf=-0.011952
			8:[f8<0.5] yes=17,no=18,missing=17
				17:[f2<2.5] yes=35,no=36,missing=35
					35:[f0<0.281357] yes=53,no=54,missing=53
						53:leaf=-0.0152798
						54:leaf=-0.0136156
					36:leaf=-0.00989516
				18:[f5<9.5] yes=37,no=38,missing=37
					37:leaf=-0.00700248
					38:leaf=-0.0111531
		4:[f2<0.5] yes=9,no=10,missing=9
			9:[f8<0.5] yes=19,no=20,missing=19
				19:[f5<18.5] yes=39,no=40,missing=39
					39:[f0<1.01148] yes=55,no=56,missing=55
						55:[f5<8.5] yes=65,no=66,missing=65
							65:[f5<1.5] yes=71,no=72,missing=71
								71:leaf=-0.0135515
								72:leaf=-0.014883
							66:[f0<0.875584] yes=73,no=74,missing=73
								73:leaf=-0.0142739
								74:[f5<12.5] yes=77,no=78,missing=77
									77:leaf=-0.0133337
									78:leaf=-0.0105362
						56:leaf=-0.0117896
					40:leaf=-0.0107354
				20:leaf=-0.00615615
			10:[f0<1.00024] yes=21,no=22,missing=21
				21:[f2<1.5] yes=41,no=42,missing=41
					41:[f8<0.5] yes=57,no=58,missing=57
						57:[f0<0.801074] yes=67,no=68,missing=67
							67:leaf=-0.0133812
							68:[f0<0.964644] yes=75,no=76,missing=75
								75:[f0<0.882004] yes=79,no=80,missing=79
									79:leaf=-0.0108958
									80:leaf=-0.00889433
								76:leaf=-0.0116837
						58:leaf=-0.00520101
					42:[f2<2.5] yes=59,no=60,missing=59
						59:[f0<0.931425] yes=69,no=70,missing=69
							69:leaf=-0.00690726
							70:leaf=-0.0095654
						60:leaf=-0.00427254
				22:[f5<6.5] yes=43,no=44,missing=43
					43:leaf=-0.00317915
					44:leaf=0.00139386
	2:[f6<1.5] yes=5,no=6,missing=5
		5:[f0<0.518778] yes=11,no=12,missing=11
			11:[f2<0.5] yes=23,no=24,missing=23
				23:leaf=-0.0116032
				24:leaf=-0.0060835
			12:[f8<0.5] yes=25,no=26,missing=25
				25:[f0<0.965209] yes=45,no=46,missing=45
					45:[f2<0.5] yes=61,no=62,missing=61
						61:leaf=-0.00944698
						62:leaf=-0.00631064
					46:[f5<3.5] yes=63,no=64,missing=63
						63:leaf=-0.00392443
						64:leaf=0.000321073
				26:[f0<0.993989] yes=47,no=48,missing=47
					47:leaf=0.00488487
					48:leaf=0.000158518
		6:[f2<0.5] yes=13,no=14,missing=13
			13:[f6<2.5] yes=27,no=28,missing=27
				27:leaf=-0.00236949
				28:leaf=0.0015948
			14:[f5<3.5] yes=29,no=30,missing=29
				29:leaf=0.0017551
				30:[f0<0.893669] yes=49,no=50,missing=49
					49:leaf=0.00202441
					50:leaf=0.00965186
booster[21]:
0:[f8<0.5] yes=1,no=2,missing=1
	1:[f1<53.5] yes=3,no=4,missing=3
		3:[f5<1.5] yes=7,no=8,missing=7
			7:[f1<25.5] yes=15,no=16,missing=15
				15:leaf=-0.0140469
				16:[f3<0.0192831] yes=29,no=30,missing=29
					29:[f5<0.5] yes=43,no=44,missing=43
						43:leaf=-0.00992295
						44:leaf=-0.0135432
					30:[f3<0.857143] yes=45,no=46,missing=45
						45:leaf=-0.0070335
						46:leaf=-0.00888647
			8:[f3<0.421639] yes=17,no=18,missing=17
				17:[f7<0.5] yes=31,no=32,missing=31
					31:[f3<0.257017] yes=47,no=48,missing=47
						47:[f3<0.0275934] yes=59,no=60,missing=59
							59:leaf=-0.0157444
							60:[f5<2.5] yes=69,no=70,missing=69
								69:[f1<31.5] yes=77,no=78,missing=77
									77:leaf=-0.0137688
									78:leaf=-0.0108357
								70:[f1<25.5] yes=79,no=80,missing=79
									79:leaf=-0.0118617
									80:leaf=-0.014393
						48:[f1<38.5] yes=61,no=62,missing=61
							61:[f3<0.345725] yes=71,no=72,missing=71
								71:leaf=-0.0118786
								72:leaf=-0.0093748
							62:leaf=-0.0131136
					32:leaf=-0.0156045
				18:[f3<637.75] yes=33,no=34,missing=33
					33:[f7<4.5] yes=49,no=50,missing=49
						49:[f3<0.717274] yes=63,no=64,missing=63
							63:[f7<0.5] yes=73,no=74,missing=73
								73:[f3<0.553997] yes=81,no=82,missing=81
									81:leaf=-0.0106561
									82:leaf=-0.0140179
								74:[f3<0.521312] yes=83,no=84,missing=83
									83:leaf=-0.0147125
									84:[f3<0.664447] yes=87,no=88,missing=87
										87:leaf=-0.0134957
										88:leaf=-0.0152072
							64:[f5<15.5] yes=75,no=76,missing=75
								75:[f3<2.40318] yes=85,no=86,missing=85
									85:[f3<1.41481] yes=89,no=90,missing=89
										89:leaf=-0.0130753
										90:leaf=-0.0100379
									86:leaf=-0.0138562
								76:leaf=-0.00944163
						50:leaf=-0.00886598
					34:[f7<0.5] yes=51,no=52,missing=51
						51:leaf=-0.013171
						52:[f3<3423] yes=65,no=66,missing=65
							65:leaf=-0.0156342
							66:leaf=-0.0139612
		4:[f5<1.5] yes=9,no=10,missing=9
			9:[f1<64.5] yes=19,no=20,missing=19
				19:leaf=-0.0113335
				20:leaf=-0.0159822
			10:[f7<4.5] yes=21,no=22,missing=21
				21:[f3<0.31494] yes=35,no=36,missing=35
					35:leaf=-0.0161683
					36:[f3<3.57342] yes=53,no=54,missing=53
						53:[f3<0.666378] yes=67,no=68,missing=67
							67:leaf=-0.0154049
							68:leaf=-0.0144705
						54:leaf=-0.0162077
				22:leaf=-0.0128037
	2:[f8<1.5] yes=5,no=6,missing=5
		5:[f3<0.572801] yes=11,no=12,missing=11
			11:[f7<0.5] yes=23,no=24,missing=23
				23:[f1<39.5] yes=37,no=38,missing=37
					37:leaf=-0.00668955
					38:[f3<0.152909] yes=55,no=56,missing=55
						55:leaf=-0.00506581
						56:leaf=-0.00275914
				24:[f5<6.5] yes=39,no=40,missing=39
					39:leaf=-0.00671944
					40:[f3<0.385688] yes=57,no=58,missing=57
						57:leaf=-0.0116348
						58:leaf=-0.0084502
			12:[f5<5.5] yes=25,no=26,missing=25
				25:leaf=-7.51065e-05
				26:[f1<47.5] yes=41,no=42,missing=41
					41:leaf=-0.00140383
					42:leaf=-0.00631412
		6:[f3<0.473115] yes=13,no=14,missing=13
			13:[f5<5.5] yes=27,no=28,missing=27
				27:leaf=0.000682871
				28:leaf=-0.0017295
			14:leaf=0.00372754
booster[22]:
0:[f0<0.707324] yes=1,no=2,missing=1
	1:[f0<0.395027] yes=3,no=4,missing=3
		3:[f7<3.5] yes=7,no=8,missing=7
			7:[f0<0.131953] yes=15,no=16,missing=15
				15:[f1<33.5] yes=31,no=32,missing=31
					31:leaf=-0.0152031
					32:leaf=-0.0161759
				16:[f4<5508.73] yes=33,no=34,missing=33
					33:leaf=-0.0149755
					34:leaf=-0.0157608
			8:[f1<44.5] yes=17,no=18,missing=17
				17:leaf=-0.0098478
				18:leaf=-0.0145095
		4:[f4<6666.5] yes=9,no=10,missing=9
			9:[f0<0.530947] yes=19,no=20,missing=19
				19:[f5<13.5] yes=35,no=36,missing=35
					35:[f4<4638.48] yes=49,no=50,missing=49
						49:[f4<4166.5] yes=63,no=64,missing=63
							63:leaf=-0.0140247
							64:leaf=-0.0113547
						50:leaf=-0.0150823
					36:leaf=-0.0118047
				20:[f5<3.5] yes=37,no=38,missing=37
					37:leaf=-0.0108512
					38:[f5<14.5] yes=51,no=52,missing=51
						51:[f1<30.5] yes=65,no=66,missing=65
							65:leaf=-0.0110618
							66:leaf=-0.0131182
						52:leaf=-0.0107667
			10:[f7<3.5] yes=21,no=22,missing=21
				21:[f1<52.5] yes=39,no=40,missing=39
					39:leaf=-0.014205
					40:leaf=-0.0154181
				22:leaf=-0.0115714
	2:[f0<1.02508] yes=5,no=6,missing=5
		5:[f1<55.5] yes=11,no=12,missing=11
			11:[f0<0.857639] yes=23,no=24,missing=23
				23:[f5<10.5] yes=41,no=42,missing=41
					41:[f1<39.5] yes=53,no=54,missing=53
						53:[f1<35.5] yes=67,no=68,missing=67
							67:leaf=-0.0116687
							68:leaf=-0.0142449
						54:[f4<5501.5] yes=69,no=70,missing=69
							69:[f0<0.787353] yes=79,no=80,missing=79
								79:leaf=-0.0109851
								80:leaf=-0.00812349
							70:[f0<0.778335] yes=81,no=82,missing=81
								81:leaf=-0.0104403
								82:leaf=-0.0129724
					42:[f1<43.5] yes=55,no=56,missing=55
						55:leaf=-0.0072245
						56:leaf=-0.0104363
				24:[f4<5166.71] yes=43,no=44,missing=43
					43:[f1<23.5] yes=57,no=58,missing=57
						57:leaf=-0.0126259
						58:[f1<30.5] yes=71,no=72,missing=71
							71:[f5<4.5] yes=83,no=84,missing=83
								83:[f5<2.5] yes=89,no=90,missing=89
									89:leaf=-0.00870763
									90:leaf=-0.010396
								84:leaf=-0.00721617
							72:[f1<32.5] yes=85,no=86,missing=85
								85:leaf=-0.00557091
								86:[f5<8.5] yes=91,no=92,missing=91
									91:[f4<3948.5] yes=95,no=96,missing=95
										95:[f0<0.979267] yes=99,no=100,missing=99
											99:leaf=-0.010074
											100:[f4<3321.5] yes=103,no=104,missing=103
												103:[f4<1954] yes=107,no=108,missing=107
													107:leaf=-0.00887768
													108:[f5<2.5] yes=109,no=110,missing=109
														109:leaf=-0.00681665
														110:leaf=-0.00523053
												104:leaf=-0.00938548
										96:[f4<4811.65] yes=101,no=102,missing=101
											101:[f1<41.5] yes=105,no=106,missing=105
												105:leaf=-0.00705665
												106:leaf=-0.00414452
											102:leaf=-0.00922542
									92:leaf=-0.00564451
					44:[f5<9.5] yes=59,no=60,missing=59
						59:[f7<1.5] yes=73,no=74,missing=73
							73:[f4<5552.35] yes=87,no=88,missing=87
								87:leaf=-0.0119271
								88:[f5<5.5] yes=93,no=94,missing=93
									93:[f7<0.5] yes=97,no=98,missing=97
										97:leaf=-0.00743858
										98:leaf=-0.00933283
									94:leaf=-0.0108241
							74:leaf=-0.0116296
						60:[f1<44.5] yes=75,no=76,missing=75
							75:leaf=-0.00563595
							76:leaf=-0.00978364
			12:[f1<67.5] yes=25,no=26,missing=25
				25:[f4<9202] yes=45,no=46,missing=45
					45:[f5<7.5] yes=61,no=62,missing=61
						61:leaf=-0.0121456
						62:[f0<0.884712] yes=77,no=78,missing=77
							77:leaf=-0.0118394
							78:leaf=-0.00871557
					46:leaf=-0.0139401
				26:[f5<5.5] yes=47,no=48,missing=47
					47:leaf=-0.0153637
					48:leaf=-0.0128049
		6:[f5<5.5] yes=13,no=14,missing=13
			13:[f0<1.13616] yes=27,no=28,missing=27
				27:leaf=-0.00823945
				28:leaf=-0.00262331
			14:[f0<1.15424] yes=29,no=30,missing=29
				29:leaf=0.00207001
				30:leaf=-0.00398951
booster[23]:
0:[f8<0.5] yes=1,no=2,missing=1
	1:[f0<0.703206] yes=3,no=4,missing=3
		3:[f2<0.5] yes=7,no=8,missing=7
			7:[f0<0.234302] yes=15,no=16,missing=15
				15:[f7<4.5] yes=27,no=28,missing=27
					27:leaf=-0.0161827
					28:leaf=-0.0131143
				16:[f0<0.495362] yes=29,no=30,missing=29
					29:leaf=-0.0155031
					30:leaf=-0.0147505
			8:[f2<1.5] yes=17,no=18,missing=17
				17:[f0<0.460295] yes=31,no=32,missing=31
					31:[f0<0.192896] yes=49,no=50,missing=49
						49:leaf=-0.0147662
						50:leaf=-0.0134571
					32:leaf=-0.0118811
				18:[f0<0.484937] yes=33,no=34,missing=33
					33:[f3<0.833898] yes=51,no=52,missing=51
						51:[f0<0.167858] yes=59,no=60,missing=59
							59:leaf=-0.0132299
							60:leaf=-0.0110486
						52:leaf=-0.00915458
					34:leaf=-0.00746328
		4:[f2<0.5] yes=9,no=10,missing=9
			9:[f7<0.5] yes=19,no=20,missing=19
				19:[f0<1.00648] yes=35,no=36,missing=35
					35:[f0<0.962674] yes=53,no=54,missing=53
						53:leaf=-0.0131104
						54:[f3<0.00313758] yes=61,no=62,missing=61
							61:leaf=-0.0128551
							62:[f3<0.0483132] yes=69,no=70,missing=69
								69:leaf=-0.00793408
								70:[f3<0.145695] yes=77,no=78,missing=77
									77:leaf=-0.0126837
									78:[f3<0.215229] yes=83,no=84,missing=83
										83:leaf=-0.00852568
										84:leaf=-0.0114564
					36:leaf=-0.00689052
				20:[f3<0.525714] yes=37,no=38,missing=37
					37:leaf=-0.0145321
					38:[f3<5.98901] yes=55,no=56,missing=55
						55:[f3<1.15202] yes=63,no=64,missing=63
							63:[f0<0.926358] yes=71,no=72,missing=71
								71:leaf=-0.0134476
								72:[f0<0.99965] yes=79,no=80,missing=79
									79:leaf=-0.0101664
									80:leaf=-0.0124049
							64:leaf=-0.0100701
						56:leaf=-0.0144026
			10:[f2<2.5] yes=21,no=22,missing=21
				21:[f0<1.00406] yes=39,no=40,missing=39
					39:[f2<1.5] yes=57,no=58,missing=57
						57:[f0<0.93685] yes=65,no=66,missing=65
							65:[f7<0.5] yes=73,no=74,missing=73
								73:leaf=-0.00977125
								74:leaf=-0.0119438
							66:[f0<0.983418] yes=75,no=76,missing=75
								75:leaf=-0.00650623
								76:[f3<0.37357] yes=81,no=82,missing=81
									81:leaf=-0.00806117
									82:leaf=-0.00979876
						58:[f3<0.49078] yes=67,no=68,missing=67
							67:leaf=-0.00745728
							68:leaf=-0.00385219
					40:leaf=-0.00249835
				22:leaf=-0.00029957
	2:[f0<0.858123] yes=5,no=6,missing=5
		5:[f8<1.5] yes=11,no=12,missing=11
			11:[f2<0.5] yes=23,no=24,missing=23
				23:[f0<0.439758] yes=41,no=42,missing=41
					41:leaf=-0.0121809
					42:leaf=-0.00901953
				24:[f2<1.5] yes=43,no=44,missing=43
					43:leaf=-0.00776948
					44:leaf=-0.00444283
			12:leaf=-0.00123569
		6:[f2<2.5] yes=13,no=14,missing=13
			13:[f3<0.523169] yes=25,no=26,missing=25
				25:[f3<0.189162] yes=45,no=46,missing=45
					45:leaf=-0.00323756
					46:leaf=-0.00104862
				26:[f3<2.10979] yes=47,no=48,missing=47
					47:leaf=0.00471576
					48:leaf=0.00134352
			14:leaf=0.00629615
booster[24]:
0:[f6<0.5] yes=1,no=2,missing=1
	1:[f0<0.602195] yes=3,no=4,missing=3
		3:[f0<0.227798] yes=7,no=8,missing=7
			7:[f5<13.5] yes=15,no=16,missing=15
				15:leaf=-0.0160998
				16:leaf=-0.0154244
			8:[f5<9.5] yes=17,no=18,missing=17
				17:[f1<26.5] yes=29,no=30,missing=29
					29:leaf=-0.01298
					30:[f0<0.506117] yes=43,no=44,missing=43
						43:leaf=-0.0154976
						44:[f1<45.5] yes=59,no=60,missing=59
							59:leaf=-0.013096
							60:leaf=-0.015261
				18:[f1<57.5] yes=31,no=32,missing=31
					31:[f0<0.395332] yes=45,no=46,missing=45
						45:leaf=-0.0145401
						46:[f3<0.668038] yes=61,no=62,missing=61
							61:leaf=-0.0138375
							62:[f0<0.508718] yes=73,no=74,missing=73
								73:leaf=-0.00923943
								74:leaf=-0.0126121
					32:leaf=-0.0151577
		4:[f0<1] yes=9,no=10,missing=9
			9:[f1<57.5] yes=19,no=20,missing=19
				19:[f5<10.5] yes=33,no=34,missing=33
					33:[f0<0.845849] yes=47,no=48,missing=47
						47:[f3<0.117451] yes=63,no=64,missing=63
							63:leaf=-0.0115244
							64:[f3<0.562582] yes=75,no=76,missing=75
								75:[f1<32.5] yes=83,no=84,missing=83
									83:leaf=-0.0120761
									84:leaf=-0.0146395
								76:[f5<6.5] yes=85,no=86,missing=85
									85:leaf=-0.0137373
									86:[f0<0.718502] yes=93,no=94,missing=93
										93:leaf=-0.0126222
										94:leaf=-0.0097924
						48:[f3<1509] yes=65,no=66,missing=65
							65:[f3<0.416591] yes=77,no=78,missing=77
								77:[f3<0.0867998] yes=87,no=88,missing=87
									87:[f3<0.0135197] yes=95,no=96,missing=95
										95:leaf=-0.0120914
										96:leaf=-0.00771815
									88:[f3<0.193211] yes=97,no=98,missing=97
										97:[f0<0.992024] yes=101,no=102,missing=101
											101:leaf=-0.0101695
											102:leaf=-0.012818
										98:leaf=-0.0131971
								78:[f5<8.5] yes=89,no=90,missing=89
									89:[f5<2.5] yes=99,no=100,missing=99
										99:leaf=-0.00941946
										100:[f5<5.5] yes=103,no=104,missing=103
											103:[f3<0.858559] yes=105,no=106,missing=105
												105:leaf=-0.010193
												106:leaf=-0.0137092
											104:leaf=-0.0100807
									90:leaf=-0.00815678
							66:leaf=-0.0137357
					34:[f3<0.66702] yes=49,no=50,missing=49
						49:[f0<0.714577] yes=67,no=68,missing=67
							67:leaf=-0.0130276
							68:[f3<0.349851] yes=79,no=80,missing=79
								79:leaf=-0.00885362
								80:[f3<0.489293] yes=91,no=92,missing=91
									91:leaf=-0.0126336
									92:leaf=-0.00962047
						50:[f3<3.85691] yes=69,no=70,missing=69
							69:[f1<47.5] yes=81,no=82,missing=81
								81:leaf=-0.00581066
								82:leaf=-0.00787282
							70:leaf=-0.00960559
				20:[f5<9.5] yes=35,no=36,missing=35
					35:leaf=-0.0145446
					36:[f0<0.881464] yes=51,no=52,missing=51
						51:leaf=-0.0137196
						52:leaf=-0.0107797
			10:[f5<5.5] yes=21,no=22,missing=21
				21:leaf=-0.00851197
				22:[f3<0.521491] yes=37,no=38,missing=37
					37:leaf=-0.00767613
					38:leaf=-0.00064414
	2:[f0<0.519919] yes=5,no=6,missing=5
		5:[f6<1.5] yes=11,no=12,missing=11
			11:[f1<53.5] yes=23,no=24,missing=23
				23:leaf=-0.00779361
				24:leaf=-0.0110834
			12:leaf=-0.00137888
		6:[f3<0.270317] yes=13,no=14,missing=13
			13:[f6<2.5] yes=25,no=26,missing=25
				25:[f3<0.0561834] yes=39,no=40,missing=39
					39:leaf=-0.00611856
					40:[f0<0.964081] yes=53,no=54,missing=53
						53:leaf=-0.0055958
						54:leaf=-0.00202577
				26:leaf=0.000823893
			14:[f6<2.5] yes=27,no=28,missing=27
				27:[f1<50.5] yes=41,no=42,missing=41
					41:[f0<0.964413] yes=55,no=56,missing=55
						55:leaf=0.000537613
						56:[f5<3.5] yes=71,no=72,missing=71
							71:leaf=0.00146156
							72:leaf=0.00648267
					42:[f3<0.717098] yes=57,no=58,missing=57
						57:leaf=0.000115109
						58:leaf=-0.00425988
				28:leaf=0.00855798
booster[25]:
0:[f8<0.5] yes=1,no=2,missing=1
	1:[f0<0.703198] yes=3,no=4,missing=3
		3:[f0<0.301284] yes=7,no=8,missing=7
			7:[f5<13.5] yes=15,no=16,missing=15
				15:[f1<54.5] yes=29,no=30,missing=29
					29:leaf=-0.0156451
					30:leaf=-0.0160379
				16:[f1<35.5] yes=31,no=32,missing=31
					31:leaf=-0.0128998
					32:leaf=-0.015235
			8:[f0<0.493455] yes=17,no=18,missing=17
				17:[f5<16.5] yes=33,no=34,missing=33
					33:leaf=-0.0147999
					34:[f1<52.5] yes=49,no=50,missing=49
						49:leaf=-0.0112765
						50:leaf=-0.0140842
				18:[f5<18.5] yes=35,no=36,missing=35
					35:[f1<52.5] yes=51,no=52,missing=51
						51:[f3<0.552367] yes=67,no=68,missing=67
							67:leaf=-0.0138528
							68:[f3<0.742389] yes=75,no=76,missing=75
								75:leaf=-0.0105985
								76:leaf=-0.0130925
						52:leaf=-0.0144196
					36:leaf=-0.0114741
		4:[f0<1.00021] yes=9,no=10,missing=9
			9:[f1<59.5] yes=19,no=20,missing=19
				19:[f3<0.549263] yes=37,no=38,missing=37
					37:[f0<0.969445] yes=53,no=54,missing=53
						53:[f3<0.419668] yes=69,no=70,missing=69
							69:[f1<28.5] yes=77,no=78,missing=77
								77:leaf=-0.0104534
								78:[f3<0.201205] yes=87,no=88,missing=87
									87:leaf=-0.0121411
									88:leaf=-0.0136057
							70:[f3<0.451823] yes=79,no=80,missing=79
								79:leaf=-0.00896971
								80:leaf=-0.0124423
						54:[f5<3.5] yes=71,no=72,missing=71
							71:[f1<25.5] yes=81,no=82,missing=81
								81:leaf=-0.0127267
								82:[f3<0.0228593] yes=89,no=90,missing=89
									89:[f5<0.5] yes=95,no=96,missing=95
										95:leaf=-0.00909709
										96:leaf=-0.0125049
									90:[f3<0.112119] yes=97,no=98,missing=97
										97:leaf=-0.00744913
										98:[f1<44.5] yes=103,no=104,missing=103
											103:leaf=-0.010242
											104:leaf=-0.00819805
							72:[f0<0.999837] yes=83,no=84,missing=83
								83:leaf=-0.00912848
								84:leaf=-0.0131634
					38:[f3<1970.5] yes=55,no=56,missing=55
						55:[f5<14.5] yes=73,no=74,missing=73
							73:[f3<1.28649] yes=85,no=86,missing=85
								85:[f3<0.592411] yes=91,no=92,missing=91
									91:leaf=-0.0084054
									92:[f0<0.915496] yes=99,no=100,missing=99
										99:leaf=-0.0125682
										100:[f0<0.991786] yes=105,no=106,missing=105
											105:leaf=-0.00831491
											106:leaf=-0.0107158
								86:[f0<0.979752] yes=93,no=94,missing=93
									93:leaf=-0.00673003
									94:[f5<1.5] yes=101,no=102,missing=101
										101:leaf=-0.00739285
										102:leaf=-0.0116235
							74:leaf=-0.00609536
						56:leaf=-0.012653
				20:[f1<64.5] yes=39,no=40,missing=39
					39:[f3<0.448176] yes=57,no=58,missing=57
						57:leaf=-0.0119071
						58:leaf=-0.0140648
					40:[f0<0.956892] yes=59,no=60,missing=59
						59:leaf=-0.0133826
						60:leaf=-0.015884
			10:[f0<1.42013] yes=21,no=22,missing=21
				21:[f0<1.0904] yes=41,no=42,missing=41
					41:[f5<6.5] yes=61,no=62,missing=61
						61:leaf=-0.00713394
						62:leaf=-0.00466726
					42:leaf=-0.00150813
				22:leaf=-0.00982475
	2:[f0<0.480907] yes=5,no=6,missing=5
		5:[f3<0.921842] yes=11,no=12,missing=11
			11:[f3<0.374718] yes=23,no=24,missing=23
				23:[f3<0.226668] yes=43,no=44,missing=43
					43:leaf=-0.00844407
					44:leaf=-0.0115951
				24:leaf=-0.00648737
			12:leaf=-0.0111394
		6:[f3<0.404047] yes=13,no=14,missing=13
			13:[f8<1.5] yes=25,no=26,missing=25
				25:[f0<0.901961] yes=45,no=46,missing=45
					45:leaf=-0.00728409
					46:[f5<3.5] yes=63,no=64,missing=63
						63:leaf=-0.00523276
						64:leaf=-0.000993952
				26:leaf=-0.00103061
			14:[f8<1.5] yes=27,no=28,missing=27
				27:[f0<0.876105] yes=47,no=48,missing=47
					47:leaf=-0.00315019
					48:[f5<5.5] yes=65,no=66,missing=65
						65:leaf=0.000724676
						66:leaf=0.00272839
				28:leaf=0.00520885
booster[26]:
0:[f6<0.5] yes=1,no=2,missing=1
	1:[f8<0.5] yes=3,no=4,missing=3
		3:[f4<5555.11] yes=7,no=8,missing=7
			7:[f3<0.539005] yes=15,no=16,missing=15
				15:[f9<0.5] yes=29,no=30,missing=29
					29:leaf=-0.0151193
					30:[f4<3081.5] yes=49,no=50,missing=49
						49:leaf=-0.0128842
						50:leaf=-0.0147451
				16:[f4<899] yes=31,no=32,missing=31
					31:leaf=-0.0153942
					32:[f9<1.5] yes=51,no=52,missing=51
						51:[f3<0.934873] yes=61,no=62,missing=61
							61:leaf=-0.0142652
							62:[f3<3.61603] yes=69,no=70,missing=69
								69:[f4<3483.5] yes=73,no=74,missing=73
									73:leaf=-0.0134208
									74:leaf=-0.010817
								70:[f4<4252.1] yes=75,no=76,missing=75
									75:leaf=-0.0127748
									76:leaf=-0.0146147
						52:[f4<2799.5] yes=63,no=64,missing=63
							63:leaf=-0.0142014
							64:leaf=-0.0124144
			8:[f9<0.5] yes=17,no=18,missing=17
				17:[f3<4030] yes=33,no=34,missing=33
					33:leaf=-0.0155138
					34:leaf=-0.0139006
				18:[f3<0.413388] yes=35,no=36,missing=35
					35:leaf=-0.0153115
					36:[f3<2.54533] yes=53,no=54,missing=53
						53:[f3<0.583702] yes=65,no=66,missing=65
							65:leaf=-0.0143406
							66:[f4<10167] yes=71,no=72,missing=71
								71:[f4<6621.5] yes=77,no=78,missing=77
									77:leaf=-0.0108755
									78:leaf=-0.013435
								72:leaf=-0.00968104
						54:leaf=-0.0154438
		4:[f8<1.5] yes=9,no=10,missing=9
			9:[f3<0.479882] yes=19,no=20,missing=19
				19:[f3<0.105047] yes=37,no=38,missing=37
					37:leaf=-0.00683525
					38:[f4<6450] yes=55,no=56,missing=55
						55:[f3<0.281285] yes=67,no=68,missing=67
							67:leaf=-0.00819684
							68:leaf=-0.0108437
						56:leaf=-0.0123138
				20:[f9<0.5] yes=39,no=40,missing=39
					39:leaf=-0.00798451
					40:leaf=-0.00482658
			10:leaf=-0.00232633
	2:[f6<1.5] yes=5,no=6,missing=5
		5:[f8<0.5] yes=11,no=12,missing=11
			11:[f3<0.470812] yes=21,no=22,missing=21
				21:[f4<4660.5] yes=41,no=42,missing=41
					41:[f4<2554.5] yes=57,no=58,missing=57
						57:leaf=-0.00780986
						58:leaf=-0.0052972
					42:[f4<6969.5] yes=59,no=60,missing=59
						59:leaf=-0.00757112
						60:leaf=-0.00931665
				22:[f4<5739.67] yes=43,no=44,missing=43
					43:leaf=-0.00202721
					44:leaf=-0.00629888
			12:[f3<0.365486] yes=23,no=24,missing=23
				23:leaf=-0.00220262
				24:leaf=0.00161036
		6:[f3<0.178821] yes=13,no=14,missing=13
			13:[f4<3541.5] yes=25,no=26,missing=25
				25:leaf=-0.00330906
				26:leaf=-0.00071923
			14:[f8<0.5] yes=27,no=28,missing=27
				27:[f3<0.50646] yes=45,no=46,missing=45
					45:leaf=0.00299561
					46:leaf=3.48325e-05
				28:[f4<4418.36] yes=47,no=48,missing=47
					47:leaf=0.00763974
					48:leaf=0.00443211
booster[27]:
0:[f6<0.5] yes=1,no=2,missing=1
	1:[f0<0.616913] yes=3,no=4,missing=3
		3:[f2<1.5] yes=7,no=8,missing=7
			7:[f2<0.5] yes=15,no=16,missing=15
				15:[f0<0.156664] yes=31,no=32,missing=31
					31:leaf=-0.015887
					32:[f1<53.5] yes=51,no=52,missing=51
						51:[f0<0.40765] yes=61,no=62,missing=61
							61:[f5<8.5] yes=75,no=76,missing=75
								75:leaf=-0.0154657
								76:leaf=-0.0145887
							62:[f5<15.5] yes=77,no=78,missing=77
								77:leaf=-0.0144102
								78:leaf=-0.0119219
						52:leaf=-0.0154567
				16:[f0<0.23796] yes=33,no=34,missing=33
					33:leaf=-0.0144121
					34:leaf=-0.0131405
			8:[f2<2.5] yes=17,no=18,missing=17
				17:[f1<43.5] yes=35,no=36,missing=35
					35:leaf=-0.00964412
					36:leaf=-0.0127155
				18:[f1<51.5] yes=37,no=38,missing=37
					37:leaf=-0.00742134
					38:leaf=-0.00953205
		4:[f2<0.5] yes=9,no=10,missing=9
			9:[f1<56.5] yes=19,no=20,missing=19
				19:[f0<1.002] yes=39,no=40,missing=39
					39:[f5<10.5] yes=53,no=54,missing=53
						53:[f5<2.5] yes=63,no=64,missing=63
							63:[f1<24.5] yes=79,no=80,missing=79
								79:leaf=-0.0137208
								80:leaf=-0.0113347
							64:[f0<0.833084] yes=81,no=82,missing=81
								81:leaf=-0.0139837
								82:[f0<0.999925] yes=87,no=88,missing=87
									87:[f0<0.976933] yes=89,no=90,missing=89
										89:leaf=-0.0125068
										90:leaf=-0.0101578
									88:leaf=-0.0141912
						54:[f1<48.5] yes=65,no=66,missing=65
							65:leaf=-0.0103234
							66:leaf=-0.0124651
					40:leaf=-0.00958136
				20:leaf=-0.0147144
			10:[f0<1.00021] yes=21,no=22,missing=21
				21:[f2<1.5] yes=41,no=42,missing=41
					41:[f1<36.5] yes=55,no=56,missing=55
						55:[f1<31.5] yes=67,no=68,missing=67
							67:leaf=-0.0091363
							68:leaf=-0.00642426
						56:[f0<0.860053] yes=69,no=70,missing=69
							69:leaf=-0.0117513
							70:[f0<0.999832] yes=83,no=84,missing=83
								83:leaf=-0.00832681
								84:leaf=-0.0122531
					42:[f2<2.5] yes=57,no=58,missing=57
						57:[f0<0.931] yes=71,no=72,missing=71
							71:leaf=-0.00628504
							72:leaf=-0.00830724
						58:leaf=-0.00426641
				22:[f1<43.5] yes=43,no=44,missing=43
					43:leaf=0.000343327
					44:leaf=-0.001598
	2:[f6<1.5] yes=5,no=6,missing=5
		5:[f0<0.585511] yes=11,no=12,missing=11
			11:[f2<0.5] yes=23,no=24,missing=23
				23:[f0<0.167547] yes=45,no=46,missing=45
					45:leaf=-0.0112494
					46:leaf=-0.00818806
				24:leaf=-0.00659579
			12:[f0<1.00266] yes=25,no=26,missing=25
				25:[f2<1.5] yes=47,no=48,missing=47
					47:[f1<53.5] yes=59,no=60,missing=59
						59:[f5<1.5] yes=73,no=74,missing=73
							73:leaf=-0.00474688
							74:[f0<0.931947] yes=85,no=86,missing=85
								85:leaf=-0.00397618
								86:leaf=-0.00189576
						60:leaf=-0.00674558
					48:leaf=-0.000543587
				26:leaf=0.0034182
		6:[f2<0.5] yes=13,no=14,missing=13
			13:[f1<40.5] yes=27,no=28,missing=27
				27:leaf=0.000814388
				28:leaf=-0.00151728
			14:[f5<4.5] yes=29,no=30,missing=29
				29:leaf=0.00204365
				30:[f0<0.939932] yes=49,no=50,missing=49
					49:leaf=0.0039656
					50:leaf=0.00945156
booster[28]:
0:[f8<0.5] yes=1,no=2,missing=1
	1:[f5<1.5] yes=3,no=4,missing=3
		3:[f9<1.5] yes=7,no=8,missing=7
			7:[f4<4982.5] yes=15,no=16,missing=15
				15:[f4<1205.5] yes=27,no=28,missing=27
					27:leaf=-0.0144815
					28:leaf=-0.010471
				16:leaf=-0.0140287
			8:leaf=-0.00715149
		4:[f4<5669.01] yes=9,no=10,missing=9
			9:[f9<0.5] yes=17,no=18,missing=17
				17:[f4<943.5] yes=29,no=30,missing=29
					29:leaf=-0.0153036
					30:[f7<2.5] yes=39,no=40,missing=39
						39:[f4<2986.5] yes=47,no=48,missing=47
							47:leaf=-0.0137268
							48:leaf=-0.0143214
						40:leaf=-0.0123462
				18:[f5<2.5] yes=31,no=32,missing=31
					31:leaf=-0.0109398
					32:[f7<2.5] yes=41,no=42,missing=41
						41:[f7<0.5] yes=49,no=50,missing=49
							49:[f9<2.5] yes=53,no=54,missing=53
								53:[f4<3208.5] yes=59,no=60,missing=59
									59:[f5<7.5] yes=61,no=62,missing=61
										61:leaf=-0.0130538
										62:leaf=-0.0107547
									60:leaf=-0.0137523
								54:leaf=-0.0114481
							50:[f5<13.5] yes=55,no=56,missing=55
								55:leaf=-0.0141306
								56:leaf=-0.0125324
						42:leaf=-0.0108004
			10:[f7<4.5] yes=19,no=20,missing=19
				19:[f5<13.5] yes=33,no=34,missing=33
					33:[f9<0.5] yes=43,no=44,missing=43
						43:leaf=-0.015305
						44:[f4<6966.89] yes=51,no=52,missing=51
							51:[f9<2.5] yes=57,no=58,missing=57
								57:leaf=-0.0141592
								58:leaf=-0.012763
							52:leaf=-0.0149631
					34:leaf=-0.0142498
				20:leaf=-0.0113351
	2:[f8<1.5] yes=5,no=6,missing=5
		5:[f5<7.5] yes=11,no=12,missing=11
			11:[f5<2.5] yes=21,no=22,missing=21
				21:leaf=-0.00114299
				22:[f4<6236.58] yes=35,no=36,missing=35
					35:[f9<0.5] yes=45,no=46,missing=45
						45:leaf=-0.00342367
						46:leaf=-0.00168739
					36:leaf=-0.00729169
			12:[f4<6923] yes=23,no=24,missing=23
				23:[f4<4256] yes=37,no=38,missing=37
					37:leaf=-0.00461064
					38:leaf=-0.00661227
				24:leaf=-0.00912646
		6:[f9<1.5] yes=13,no=14,missing=13
			13:[f8<2.5] yes=25,no=26,missing=25
				25:leaf=-0.00151019
				26:leaf=0.00218879
			14:leaf=0.0044005
booster[29]:
0:[f6<0.5] yes=1,no=2,missing=1
	1:[f2<0.5] yes=3,no=4,missing=3
		3:[f0<0.501584] yes=7,no=8,missing=7
			7:[f0<0.144834] yes=15,no=16,missing=15
				15:leaf=-0.015646
				16:[f7<2.5] yes=29,no=30,missing=29
					29:leaf=-0.0151422
					30:[f4<8163.62] yes=49,no=50,missing=49
						49:leaf=-0.0112898
						50:leaf=-0.0147126
			8:[f0<1.00697] yes=17,no=18,missing=17
				17:[f7<3.5] yes=31,no=32,missing=31
					31:[f4<5183.25] yes=51,no=52,missing=51
						51:[f0<0.839083] yes=67,no=68,missing=67
							67:[f7<1.5] yes=79,no=80,missing=79
								79:leaf=-0.0137836
								80:leaf=-0.0118659
							68:[f4<1151.5] yes=81,no=82,missing=81
								81:leaf=-0.0142154
								82:[f7<0.5] yes=87,no=88,missing=87
									87:leaf=-0.0116215
									88:[f0<0.999959] yes=89,no=90,missing=89
										89:[f0<0.926549] yes=91,no=92,missing=91
											91:leaf=-0.0129708
											92:leaf=-0.0095986
										90:leaf=-0.0143903
						52:[f4<9504.73] yes=69,no=70,missing=69
							69:leaf=-0.0136996
							70:leaf=-0.0146931
					32:leaf=-0.00937223
				18:[f4<4993.5] yes=33,no=34,missing=33
					33:leaf=-0.00750578
					34:leaf=-0.0120277
		4:[f0<0.707252] yes=9,no=10,missing=9
			9:[f2<1.5] yes=19,no=20,missing=19
				19:[f0<0.251721] yes=35,no=36,missing=35
					35:leaf=-0.0144377
					36:[f4<3098.5] yes=53,no=54,missing=53
						53:leaf=-0.00830354
						54:leaf=-0.012706
				20:[f0<0.31121] yes=37,no=38,missing=37
					37:[f4<5215.5] yes=55,no=56,missing=55
						55:leaf=-0.00913387
						56:leaf=-0.0123677
					38:[f4<5651] yes=57,no=58,missing=57
						57:leaf=-0.00609824
						58:leaf=-0.00951028
			10:[f2<2.5] yes=21,no=22,missing=21
				21:[f0<1.00025] yes=39,no=40,missing=39
					39:[f2<1.5] yes=59,no=60,missing=59
						59:[f0<0.936596] yes=71,no=72,missing=71
							71:[f4<5416.5] yes=83,no=84,missing=83
								83:leaf=-0.00859875
								84:leaf=-0.0118605
							72:[f7<0.5] yes=85,no=86,missing=85
								85:leaf=-0.00600118
								86:leaf=-0.00964166
						60:[f4<5472.43] yes=73,no=74,missing=73
							73:leaf=-0.00378152
							74:leaf=-0.00782198
					40:leaf=-0.00252379
				22:[f4<5647] yes=41,no=42,missing=41
					41:leaf=0.000147567
					42:leaf=-0.00102897
	2:[f0<0.408721] yes=5,no=6,missing=5
		5:[f2<0.5] yes=11,no=12,missing=11
			11:[f4<5297.5] yes=23,no=24,missing=23
				23:leaf=-0.0087083
				24:leaf=-0.0124333
			12:leaf=-0.00533985
		6:[f6<1.5] yes=13,no=14,missing=13
			13:[f0<1.00299] yes=25,no=26,missing=25
				25:[f2<0.5] yes=43,no=44,missing=43
					43:[f0<0.86846] yes=61,no=62,missing=61
						61:leaf=-0.00737976
						62:[f4<3198.31] yes=75,no=76,missing=75
							75:leaf=-0.00461811
							76:leaf=-0.00226332
					44:[f4<5563] yes=63,no=64,missing=63
						63:[f4<3433] yes=77,no=78,missing=77
							77:leaf=-0.00226683
							78:leaf=0.00236457
						64:leaf=-0.0036166
				26:leaf=0.00259365
			14:[f2<0.5] yes=27,no=28,missing=27
				27:[f4<3524.2] yes=45,no=46,missing=45
					45:leaf=-0.00161599
					46:leaf=0.00132035
				28:[f7<0.5] yes=47,no=48,missing=47
					47:[f4<3050.1] yes=65,no=66,missing=65
						65:leaf=0.00257405
						66:leaf=0.0047272
					48:leaf=0.00794331
booster[30]:
0:[f6<0.5] yes=1,no=2,missing=1
	1:[f0<0.616903] yes=3,no=4,missing=3
		3:[f0<0.3003] yes=7,no=8,missing=7
			7:[f0<0.133119] yes=15,no=16,missing=15
				15:leaf=-0.0154084
				16:leaf=-0.0148265
			8:[f1<53.5] yes=17,no=18,missing=17
				17:[f5<13.5] yes=27,no=28,missing=27
					27:[f4<6119.39] yes=37,no=38,missing=37
						37:[f1<45.5] yes=53,no=54,missing=53
							53:[f0<0.498719] yes=67,no=68,missing=67
								67:leaf=-0.0142137
								68:leaf=-0.0127126
							54:leaf=-0.0124314
						38:leaf=-0.0146161
					28:[f0<0.387974] yes=39,no=40,missing=39
						39:leaf=-0.0141878
						40:[f0<0.454116] yes=55,no=56,missing=55
							55:leaf=-0.0100209
							56:leaf=-0.0121548
				18:leaf=-0.0145699
		4:[f0<1] yes=9,no=10,missing=9
			9:[f1<57.5] yes=19,no=20,missing=19
				19:[f5<10.5] yes=29,no=30,missing=29
					29:[f0<0.808164] yes=41,no=42,missing=41
						41:[f0<0.651059] yes=57,no=58,missing=57
							57:leaf=-0.0109126
							58:[f4<3401] yes=69,no=70,missing=69
								69:leaf=-0.0117828
								70:leaf=-0.0135848
						42:[f5<4.5] yes=59,no=60,missing=59
							59:[f1<25.5] yes=71,no=72,missing=71
								71:leaf=-0.0143787
								72:[f5<0.5] yes=79,no=80,missing=79
									79:leaf=-0.00970611
									80:leaf=-0.0121402
							60:[f4<8375] yes=73,no=74,missing=73
								73:[f1<52.5] yes=81,no=82,missing=81
									81:[f1<48.5] yes=85,no=86,missing=85
										85:[f4<2337.5] yes=89,no=90,missing=89
											89:leaf=-0.00804779
											90:[f1<39.5] yes=91,no=92,missing=91
												91:[f5<6.5] yes=93,no=94,missing=93
													93:leaf=-0.0119277
													94:leaf=-0.0100363
												92:[f1<43.5] yes=95,no=96,missing=95
													95:leaf=-0.00810055
													96:leaf=-0.0106887
										86:leaf=-0.00764393
									82:leaf=-0.0123872
								74:leaf=-0.0133181
					30:[f0<0.848474] yes=43,no=44,missing=43
						43:[f4<6991.86] yes=61,no=62,missing=61
							61:[f1<46.5] yes=75,no=76,missing=75
								75:leaf=-0.00828753
								76:leaf=-0.0102775
							62:leaf=-0.0120812
						44:[f1<49.5] yes=63,no=64,missing=63
							63:leaf=-0.00643431
							64:leaf=-0.00917968
				20:[f5<5.5] yes=31,no=32,missing=31
					31:leaf=-0.0147255
					32:[f4<3800.5] yes=45,no=46,missing=45
						45:leaf=-0.0108968
						46:leaf=-0.0133528
			10:[f5<8.5] yes=21,no=22,missing=21
				21:[f4<4877.62] yes=33,no=34,missing=33
					33:[f0<1.06079] yes=47,no=48,missing=47
						47:leaf=-0.00790534
						48:leaf=-0.00413035
					34:leaf=-0.00946432
				22:leaf=-0.000640525
	2:[f6<2.5] yes=5,no=6,missing=5
		5:[f0<0.289877] yes=11,no=12,missing=11
			11:[f1<53.5] yes=23,no=24,missing=23
				23:leaf=-0.00712465
				24:leaf=-0.0102048
			12:[f0<1.00299] yes=25,no=26,missing=25
				25:[f6<1.5] yes=35,no=36,missing=35
					35:[f5<10.5] yes=49,no=50,missing=49
						49:[f1<56.5] yes=65,no=66,missing=65
							65:[f5<1.5] yes=77,no=78,missing=77
								77:leaf=-0.00583185
								78:[f4<6187.5] yes=83,no=84,missing=83
									83:[f1<40.5] yes=87,no=88,missing=87
										87:leaf=-0.00320591
										88:leaf=0.00070352
									84:leaf=-0.00613116
							66:leaf=-0.00702898
						50:leaf=-0.000595474
					36:[f4<4364.93] yes=51,no=52,missing=51
						51:leaf=-0.00169401
						52:leaf=0.000182135
				26:leaf=0.00337372
		6:[f5<2.5] yes=13,no=14,missing=13
			13:leaf=0.00227889
			14:leaf=0.00618984
booster[31]:
0:[f6<0.5] yes=1,no=2,missing=1
	1:[f0<0.493032] yes=3,no=4,missing=3
		3:[f0<0.133055] yes=7,no=8,missing=7
			7:leaf=-0.0152783
			8:[f1<53.5] yes=15,no=16,missing=15
				15:[f5<9.5] yes=27,no=28,missing=27
					27:leaf=-0.0146719
					28:[f3<0.722929] yes=41,no=42,missing=41
						41:[f0<0.38638] yes=55,no=56,missing=55
							55:leaf=-0.0143892
							56:leaf=-0.0128853
						42:[f5<15.5] yes=57,no=58,missing=57
							57:[f0<0.323679] yes=71,no=72,missing=71
								71:leaf=-0.0141001
								72:leaf=-0.0113256
							58:leaf=-0.00995672
				16:leaf=-0.0149121
		4:[f0<1.002] yes=9,no=10,missing=9
			9:[f1<52.5] yes=17,no=18,missing=17
				17:[f3<0.633994] yes=29,no=30,missing=29
					29:[f3<0.0880766] yes=43,no=44,missing=43
						43:[f1<25.5] yes=59,no=60,missing=59
							59:leaf=-0.0134448
							60:[f1<42.5] yes=73,no=74,missing=73
								73:[f1<32.5] yes=85,no=86,missing=85
									85:leaf=-0.0065542
									86:leaf=-0.00857389
								74:leaf=-0.0112665
						44:[f0<0.782904] yes=61,no=62,missing=61
							61:[f1<30.5] yes=75,no=76,missing=75
								75:leaf=-0.0110024
								76:leaf=-0.0132944
							62:[f5<9.5] yes=77,no=78,missing=77
								77:[f1<49.5] yes=87,no=88,missing=87
									87:leaf=-0.0122959
									88:leaf=-0.00967847
								78:[f3<0.444674] yes=89,no=90,missing=89
									89:leaf=-0.011396
									90:leaf=-0.00776998
					30:[f5<11.5] yes=45,no=46,missing=45
						45:[f0<0.782088] yes=63,no=64,missing=63
							63:[f3<0.91873] yes=79,no=80,missing=79
								79:leaf=-0.0109727
								80:leaf=-0.0131418
							64:[f5<6.5] yes=81,no=82,missing=81
								81:[f3<494.5] yes=91,no=92,missing=91
									91:[f3<35.5] yes=95,no=96,missing=95
										95:leaf=-0.0104104
										96:leaf=-0.00816792
									92:leaf=-0.0126183
								82:[f3<1.32034] yes=93,no=94,missing=93
									93:leaf=-0.00956568
									94:leaf=-0.00719711
						46:[f0<0.795793] yes=65,no=66,missing=65
							65:leaf=-0.00885806
							66:leaf=-0.00444004
				18:[f5<9.5] yes=31,no=32,missing=31
					31:[f5<1.5] yes=47,no=48,missing=47
						47:leaf=-0.0117565
						48:leaf=-0.0138748
					32:[f0<0.692568] yes=49,no=50,missing=49
						49:leaf=-0.0134835
						50:[f1<59.5] yes=67,no=68,missing=67
							67:[f3<0.615599] yes=83,no=84,missing=83
								83:leaf=-0.0115011
								84:leaf=-0.00884388
							68:leaf=-0.0129035
			10:[f0<1.33991] yes=19,no=20,missing=19
				19:[f0<1.03753] yes=33,no=34,missing=33
					33:leaf=-0.00688014
					34:leaf=-0.00256404
				20:leaf=-0.00935797
	2:[f6<1.5] yes=5,no=6,missing=5
		5:[f0<0.516797] yes=11,no=12,missing=11
			11:[f0<0.168987] yes=21,no=22,missing=21
				21:leaf=-0.0106511
				22:leaf=-0.00799796
			12:[f0<1.00088] yes=23,no=24,missing=23
				23:[f3<0.262132] yes=35,no=36,missing=35
					35:[f3<0.110053] yes=51,no=52,missing=51
						51:leaf=-0.00488137
						52:leaf=-0.00640877
					36:[f1<50.5] yes=53,no=54,missing=53
						53:[f3<0.627849] yes=69,no=70,missing=69
							69:leaf=-0.00174117
							70:leaf=0.00229493
						54:leaf=-0.00437681
				24:leaf=0.00286242
		6:[f3<0.131916] yes=13,no=14,missing=13
			13:leaf=-0.00165322
			14:[f6<2.5] yes=25,no=26,missing=25
				25:[f0<0.940148] yes=37,no=38,missing=37
					37:leaf=-0.00106638
					38:leaf=0.00340396
				26:[f6<3.5] yes=39,no=40,missing=39
					39:leaf=0.00494801
					40:leaf=0.00800595
booster[32]:
0:[f8<0.5] yes=1,no=2,missing=1
	1:[f2<0.5] yes=3,no=4,missing=3
		3:[f1<56.5] yes=7,no=8,missing=7
			7:[f7<0.5] yes=15,no=16,missing=15
				15:[f9<0.5] yes=25,no=26,missing=25
					25:leaf=-0.0137328
					26:[f1<40.5] yes=41,no=42,missing=41
						41:[f9<2.5] yes=57,no=58,missing=57
							57:[f1<30.5] yes=65,no=66,missing=65
								65:leaf=-0.0113998
								66:leaf=-0.0129056
							58:leaf=-0.0108351
						42:leaf=-0.0137624
				16:[f7<4.5] yes=27,no=28,missing=27
					27:[f1<28.5] yes=43,no=44,missing=43
						43:leaf=-0.0116493
						44:[f7<1.5] yes=59,no=60,missing=59
							59:leaf=-0.0147669
							60:leaf=-0.0142874
					28:leaf=-0.0108384
			8:leaf=-0.0151676
		4:[f2<1.5] yes=9,no=10,missing=9
			9:[f1<53.5] yes=17,no=18,missing=17
				17:[f7<0.5] yes=29,no=30,missing=29
					29:[f1<45.5] yes=45,no=46,missing=45
						45:[f9<1.5] yes=61,no=62,missing=61
							61:[f1<28.5] yes=67,no=68,missing=67
								67:leaf=-0.00778304
								68:leaf=-0.00983161
							62:leaf=-0.00718104
						46:leaf=-0.0109275
					30:[f7<2.5] yes=47,no=48,missing=47
						47:leaf=-0.0116325
						48:leaf=-0.00937452
				18:[f7<0.5] yes=31,no=32,missing=31
					31:leaf=-0.0113593
					32:leaf=-0.0131969
			10:[f1<39.5] yes=19,no=20,missing=19
				19:[f7<0.5] yes=33,no=34,missing=33
					33:leaf=-0.00167003
					34:leaf=-0.00322015
				20:[f2<2.5] yes=35,no=36,missing=35
					35:[f7<0.5] yes=49,no=50,missing=49
						49:leaf=-0.00666844
						50:[f1<53.5] yes=63,no=64,missing=63
							63:[f9<1.5] yes=69,no=70,missing=69
								69:leaf=-0.00710547
								70:leaf=-0.00953342
							64:leaf=-0.0108362
					36:[f1<51.5] yes=51,no=52,missing=51
						51:leaf=-0.0022085
						52:leaf=-0.00672386
	2:[f8<1.5] yes=5,no=6,missing=5
		5:[f2<2.5] yes=11,no=12,missing=11
			11:[f2<0.5] yes=21,no=22,missing=21
				21:[f1<53.5] yes=37,no=38,missing=37
					37:[f1<38.5] yes=53,no=54,missing=53
						53:leaf=-0.00547495
						54:leaf=-0.00687866
					38:leaf=-0.00989562
				22:[f2<1.5] yes=39,no=40,missing=39
					39:[f1<44.5] yes=55,no=56,missing=55
						55:leaf=-0.00233945
						56:leaf=-0.00671391
					40:leaf=-0.00330349
			12:leaf=0.00194129
		6:[f9<1.5] yes=13,no=14,missing=13
			13:[f7<0.5] yes=23,no=24,missing=23
				23:leaf=-0.000321802
				24:leaf=0.00309525
			14:leaf=0.00467163
booster[33]:
0:[f8<0.5] yes=1,no=2,missing=1
	1:[f1<53.5] yes=3,no=4,missing=3
		3:[f7<0.5] yes=7,no=8,missing=7
			7:[f3<0.260585] yes=15,no=16,missing=15
				15:[f9<0.5] yes=25,no=26,missing=25
					25:[f1<29.5] yes=37,no=38,missing=37
						37:[f3<0.166827] yes=53,no=54,missing=53
							53:leaf=-0.0127833
							54:leaf=-0.0110618
						38:[f1<49.5] yes=55,no=56,missing=55
							55:leaf=-0.0137311
							56:[f3<0.042294] yes=67,no=68,missing=67
								67:leaf=-0.0134123
								68:leaf=-0.0108687
					26:[f1<32.5] yes=39,no=40,missing=39
						39:leaf=-0.0100345
						40:leaf=-0.0126886
				16:[f3<0.618517] yes=27,no=28,missing=27
					27:[f3<0.475551] yes=41,no=42,missing=41
						41:[f1<36.5] yes=57,no=58,missing=57
							57:[f3<0.316601] yes=69,no=70,missing=69
								69:leaf=-0.011362
								70:leaf=-0.00944834
							58:leaf=-0.012258
						42:leaf=-0.00848981
					28:[f3<83.5] yes=43,no=44,missing=43
						43:leaf=-0.0131268
						44:leaf=-0.0115013
			8:[f3<0.468277] yes=17,no=18,missing=17
				17:[f3<0.310722] yes=29,no=30,missing=29
					29:leaf=-0.0147035
					30:leaf=-0.013952
				18:[f3<4.64472] yes=31,no=32,missing=31
					31:[f3<0.700014] yes=45,no=46,missing=45
						45:[f1<31.5] yes=59,no=60,missing=59
							59:leaf=-0.0109989
							60:[f7<3.5] yes=71,no=72,missing=71
								71:leaf=-0.0131447
								72:leaf=-0.0112378
						46:[f7<1.5] yes=61,no=62,missing=61
							61:leaf=-0.0122909
							62:[f1<40.5] yes=73,no=74,missing=73
								73:[f9<0.5] yes=75,no=76,missing=75
									75:leaf=-0.00950627
									76:leaf=-0.00691251
								74:leaf=-0.0109504
					32:[f3<4116] yes=47,no=48,missing=47
						47:leaf=-0.0145054
						48:leaf=-0.0119687
		4:[f1<63.5] yes=9,no=10,missing=9
			9:[f7<0.5] yes=19,no=20,missing=19
				19:leaf=-0.01372
				20:[f3<0.271079] yes=33,no=34,missing=33
					33:leaf=-0.0151783
					34:[f3<4.17152] yes=49,no=50,missing=49
						49:[f3<0.969633] yes=63,no=64,missing=63
							63:leaf=-0.0141427
							64:leaf=-0.0111672
						50:leaf=-0.0148374
			10:leaf=-0.0149741
	2:[f8<1.5] yes=5,no=6,missing=5
		5:[f3<0.573908] yes=11,no=12,missing=11
			11:[f1<56.5] yes=21,no=22,missing=21
				21:[f1<50.5] yes=35,no=36,missing=35
					35:[f1<41.5] yes=51,no=52,missing=51
						51:[f1<32.5] yes=65,no=66,missing=65
							65:leaf=-0.00366644
							66:leaf=-0.00564654
						52:leaf=-0.00753722
					36:leaf=-0.00289371
				22:leaf=-0.00895718
			12:[f3<2.47147] yes=23,no=24,missing=23
				23:leaf=0.000456867
				24:leaf=-0.0045296
		6:[f3<0.408785] yes=13,no=14,missing=13
			13:leaf=3.04228e-05
			14:leaf=0.00461045
booster[34]:
0:[f6<0.5] yes=1,no=2,missing=1
	1:[f0<0.490891] yes=3,no=4,missing=3
		3:[f8<0.5] yes=7,no=8,missing=7
			7:[f2<1.5] yes=15,no=16,missing=15
				15:[f2<0.5] yes=29,no=30,missing=29
					29:[f0<0.309939] yes=49,no=50,missing=49
						49:leaf=-0.0151445
						50:leaf=-0.0144176
					30:leaf=-0.0137326
				16:[f2<2.5] yes=31,no=32,missing=31
					31:[f0<0.132295] yes=51,no=52,missing=51
						51:leaf=-0.013506
						52:leaf=-0.0109371
					32:leaf=-0.00818117
			8:[f2<0.5] yes=17,no=18,missing=17
				17:[f4<5345.51] yes=33,no=34,missing=33
					33:leaf=-0.0102443
					34:leaf=-0.0123542
				18:leaf=-0.00704259
		4:[f2<0.5] yes=9,no=10,missing=9
			9:[f8<0.5] yes=19,no=20,missing=19
				19:[f0<1.00239] yes=35,no=36,missing=35
					35:[f0<0.698142] yes=53,no=54,missing=53
						53:leaf=-0.0135496
						54:[f0<0.999594] yes=65,no=66,missing=65
							65:[f0<0.948078] yes=75,no=76,missing=75
								75:[f4<1859] yes=83,no=84,missing=83
									83:leaf=-0.0106257
									84:leaf=-0.0126059
								76:[f4<6635.18] yes=85,no=86,missing=85
									85:leaf=-0.00998862
									86:leaf=-0.0130862
							66:[f4<3203.54] yes=77,no=78,missing=77
								77:leaf=-0.0123677
								78:leaf=-0.0135953
					36:[f4<5030] yes=55,no=56,missing=55
						55:leaf=-0.00638229
						56:leaf=-0.0121651
				20:[f0<0.954631] yes=37,no=38,missing=37
					37:leaf=-0.00844535
					38:leaf=-0.00356615
			10:[f0<1.00012] yes=21,no=22,missing=21
				21:[f2<1.5] yes=39,no=40,missing=39
					39:[f0<0.814579] yes=57,no=58,missing=57
						57:[f4<3847.5] yes=67,no=68,missing=67
							67:leaf=-0.0100305
							68:leaf=-0.0121397
						58:[f4<6843.09] yes=69,no=70,missing=69
							69:[f0<0.918905] yes=79,no=80,missing=79
								79:leaf=-0.00591264
								80:[f0<0.999689] yes=87,no=88,missing=87
									87:leaf=-0.00952573
									88:leaf=-0.00652413
							70:leaf=-0.0100703
					40:[f8<0.5] yes=59,no=60,missing=59
						59:[f0<0.895775] yes=71,no=72,missing=71
							71:[f0<0.732993] yes=81,no=82,missing=81
								81:leaf=-0.00735547
								82:leaf=-0.00394336
							72:leaf=-0.00832975
						60:leaf=-0.00246232
				22:[f4<4643] yes=41,no=42,missing=41
					41:leaf=-0.00143589
					42:leaf=0.00177958
	2:[f0<0.647179] yes=5,no=6,missing=5
		5:[f8<0.5] yes=11,no=12,missing=11
			11:[f4<4756.27] yes=23,no=24,missing=23
				23:leaf=-0.00434385
				24:[f0<0.191352] yes=43,no=44,missing=43
					43:leaf=-0.0111744
					44:leaf=-0.00821636
			12:leaf=-0.00144842
		6:[f6<1.5] yes=13,no=14,missing=13
			13:[f2<1.5] yes=25,no=26,missing=25
				25:[f0<0.965458] yes=45,no=46,missing=45
					45:leaf=-0.00622171
					46:[f4<2627] yes=61,no=62,missing=61
						61:leaf=-0.00392252
						62:[f4<4197] yes=73,no=74,missing=73
							73:leaf=-0.00122683
							74:leaf=-0.000250126
				26:leaf=0.00276612
			14:[f0<1] yes=27,no=28,missing=27
				27:[f2<0.5] yes=47,no=48,missing=47
					47:leaf=0.000575703
					48:[f0<0.99871] yes=63,no=64,missing=63
						63:leaf=0.0055477
						64:leaf=0.00219206
				28:leaf=0.00737607
booster[35]:
0:[f8<0.5] yes=1,no=2,missing=1
	1:[f1<53.5] yes=3,no=4,missing=3
		3:[f4<4772.23] yes=7,no=8,missing=7
			7:[f4<964] yes=15,no=16,missing=15
				15:leaf=-0.0139466
				16:[f3<3.50898] yes=27,no=28,missing=27
					27:[f1<36.5] yes=37,no=38,missing=37
						37:[f9<0.5] yes=51,no=52,missing=51
							51:leaf=-0.0122929
							52:[f4<3425.5] yes=65,no=66,missing=65
								65:[f4<2074.5] yes=77,no=78,missing=77
									77:leaf=-0.0105582
									78:[f4<2841.5] yes=85,no=86,missing=85
										85:leaf=-0.00779186
										86:leaf=-0.00987803
								66:[f3<0.174541] yes=79,no=80,missing=79
									79:leaf=-0.00996842
									80:leaf=-0.0124167
						38:[f9<1.5] yes=53,no=54,missing=53
							53:[f4<4583.5] yes=67,no=68,missing=67
								67:leaf=-0.0131983
								68:leaf=-0.0110652
							54:[f4<2306.5] yes=69,no=70,missing=69
								69:leaf=-0.0101667
								70:leaf=-0.0122849
					28:[f1<34.5] yes=39,no=40,missing=39
						39:[f4<3173.5] yes=55,no=56,missing=55
							55:leaf=-0.00965553
							56:leaf=-0.0127198
						40:leaf=-0.00733312
			8:[f3<0.425773] yes=17,no=18,missing=17
				17:leaf=-0.0139389
				18:[f3<2.83193] yes=29,no=30,missing=29
					29:[f3<0.614937] yes=41,no=42,missing=41
						41:[f4<12499.5] yes=57,no=58,missing=57
							57:[f3<0.436179] yes=71,no=72,missing=71
								71:leaf=-0.0106459
								72:[f3<0.471479] yes=81,no=82,missing=81
									81:leaf=-0.0138468
									82:leaf=-0.0125169
							58:leaf=-0.010305
						42:[f4<9153] yes=59,no=60,missing=59
							59:[f3<0.73816] yes=73,no=74,missing=73
								73:leaf=-0.0120866
								74:[f1<43.5] yes=83,no=84,missing=83
									83:leaf=-0.0078725
									84:leaf=-0.0104656
							60:leaf=-0.00829619
					30:[f4<5174.18] yes=43,no=44,missing=43
						43:leaf=-0.0118567
						44:[f3<3513.5] yes=61,no=62,missing=61
							61:leaf=-0.0140006
							62:[f1<44.5] yes=75,no=76,missing=75
								75:leaf=-0.0105514
								76:leaf=-0.0134913
		4:[f1<63.5] yes=9,no=10,missing=9
			9:[f4<6700.44] yes=19,no=20,missing=19
				19:[f9<2.5] yes=31,no=32,missing=31
					31:[f3<0.572789] yes=45,no=46,missing=45
						45:leaf=-0.0139962
						46:leaf=-0.0131998
					32:leaf=-0.0116301
				20:leaf=-0.0146928
			10:leaf=-0.0148549
	2:[f8<1.5] yes=5,no=6,missing=5
		5:[f3<0.405795] yes=11,no=12,missing=11
			11:[f4<7918] yes=21,no=22,missing=21
				21:[f3<0.296554] yes=33,no=34,missing=33
					33:[f4<3723] yes=47,no=48,missing=47
						47:leaf=-0.00660958
						48:[f4<5299] yes=63,no=64,missing=63
							63:leaf=-0.00313948
							64:leaf=-0.005131
					34:leaf=-0.00812392
				22:leaf=-0.00932953
			12:[f1<41.5] yes=23,no=24,missing=23
				23:leaf=-0.000815368
				24:[f3<1.69272] yes=35,no=36,missing=35
					35:[f3<0.57388] yes=49,no=50,missing=49
						49:leaf=-0.00523841
						50:leaf=-0.000740535
					36:leaf=-0.00606186
		6:[f3<0.472505] yes=13,no=14,missing=13
			13:[f9<0.5] yes=25,no=26,missing=25
				25:leaf=-0.00377929
				26:leaf=0.00188653
			14:leaf=0.00505193
booster[36]:
0:[f8<0.5] yes=1,no=2,missing=1
	1:[f2<0.5] yes=3,no=4,missing=3
		3:[f5<1.5] yes=7,no=8,missing=7
			7:[f5<0.5] yes=15,no=16,missing=15
				15:[f9<0.5] yes=29,no=30,missing=29
					29:leaf=-0.00947911
					30:leaf=-0.00649919
				16:[f4<4604.51] yes=31,no=32,missing=31
					31:[f4<1347.5] yes=49,no=50,missing=49
						49:leaf=-0.0142029
						50:[f9<0.5] yes=67,no=68,missing=67
							67:leaf=-0.0110228
							68:leaf=-0.00836203
					32:leaf=-0.013611
			8:[f4<4838.5] yes=17,no=18,missing=17
				17:[f9<0.5] yes=33,no=34,missing=33
					33:leaf=-0.0141562
					34:leaf=-0.0133634
				18:[f5<13.5] yes=35,no=36,missing=35
					35:leaf=-0.0146736
					36:[f9<0.5] yes=51,no=52,missing=51
						51:leaf=-0.0144828
						52:[f4<6755] yes=69,no=70,missing=69
							69:leaf=-0.0118279
							70:leaf=-0.0137951
		4:[f2<1.5] yes=9,no=10,missing=9
			9:[f5<3.5] yes=19,no=20,missing=19
				19:[f4<4868.46] yes=37,no=38,missing=37
					37:[f4<2987.5] yes=53,no=54,missing=53
						53:leaf=-0.00831414
						54:leaf=-0.00440916
					38:leaf=-0.00915871
				20:[f4<5767.31] yes=39,no=40,missing=39
					39:[f9<1.5] yes=55,no=56,missing=55
						55:leaf=-0.0108487
						56:[f4<3431] yes=71,no=72,missing=71
							71:leaf=-0.00625323
							72:leaf=-0.0103713
					40:leaf=-0.0124444
			10:[f4<6758.5] yes=21,no=22,missing=21
